{"learner":{"attributes":{"best_iteration":"247","best_score":"20.824735232079817","scikit_learn":"{\"_estimator_type\": \"regressor\"}"},"feature_names":[],"feature_types":[],"gradient_booster":{"model":{"cats":{"enc":[],"feature_segments":[],"sorted_idx":[]},"gbtree_model_param":{"num_parallel_tree":"1","num_trees":"278"},"iteration_indptr":[0,1,2,3,4,5,6,7,8,9,10,11,12,13,14,15,16,17,18,19,20,21,22,23,24,25,26,27,28,29,30,31,32,33,34,35,36,37,38,39,40,41,42,43,44,45,46,47,48,49,50,51,52,53,54,55,56,57,58,59,60,61,62,63,64,65,66,67,68,69,70,71,72,73,74,75,76,77,78,79,80,81,82,83,84,85,86,87,88,89,90,91,92,93,94,95,96,97,98,99,100,101,102,103,104,105,106,107,108,109,110,111,112,113,114,115,116,117,118,119,120,121,122,123,124,125,126,127,128,129,130,131,132,133,134,135,136,137,138,139,140,141,142,143,144,145,146,147,148,149,150,151,152,153,154,155,156,157,158,159,160,161,162,163,164,165,166,167,168,169,170,171,172,173,174,175,176,177,178,179,180,181,182,183,184,185,186,187,188,189,190,191,192,193,194,195,196,197,198,199,200,201,202,203,204,205,206,207,208,209,210,211,212,213,214,215,216,217,218,219,220,221,222,223,224,225,226,227,228,229,230,231,232,233,234,235,236,237,238,239,240,241,242,243,244,245,246,247,248,249,250,251,252,253,254,255,256,257,258,259,260,261,262,263,264,265,266,267,268,269,270,271,272,273,274,275,276,277,278],"tree_info":[0,0,0,0,0,0,0,0,0,0,0,0,0,0,0,0,0,0,0,0,0,0,0,0,0,0,0,0,0,0,0,0,0,0,0,0,0,0,0,0,0,0,0,0,0,0,0,0,0,0,0,0,0,0,0,0,0,0,0,0,0,0,0,0,0,0,0,0,0,0,0,0,0,0,0,0,0,0,0,0,0,0,0,0,0,0,0,0,0,0,0,0,0,0,0,0,0,0,0,0,0,0,0,0,0,0,0,0,0,0,0,0,0,0,0,0,0,0,0,0,0,0,0,0,0,0,0,0,0,0,0,0,0,0,0,0,0,0,0,0,0,0,0,0,0,0,0,0,0,0,0,0,0,0,0,0,0,0,0,0,0,0,0,0,0,0,0,0,0,0,0,0,0,0,0,0,0,0,0,0,0,0,0,0,0,0,0,0,0,0,0,0,0,0,0,0,0,0,0,0,0,0,0,0,0,0,0,0,0,0,0,0,0,0,0,0,0,0,0,0,0,0,0,0,0,0,0,0,0,0,0,0,0,0,0,0,0,0,0,0,0,0,0,0,0,0,0,0,0,0,0,0,0,0,0,0,0,0,0,0,0,0,0,0,0,0,0,0,0,0,0,0,0,0,0,0,0,0],"trees":[{"base_weights":[1.1183693E-1,-2.1137428E1,2.774926E1,-4.140324E1,-7.6179857E0,1.3777946E1,5.6976418E1,-2.3357592E0,-3.8221672E1,-1.314524E1,-3.4653573E0,9.014241E0,2.304544E1,4.3833927E1,6.7560936E1,-1.9665991E0,-1.5284466E0,-1.7704216E1,-1.0930527E1,-5.991391E0,-9.452704E-1,6.8677053E0,1.2779671E1,1.907918E1,1.3816389E0,1.9771343E0,2.462303E0,3.2255776E0,3.9701843E0,-1.0789908E0,-7.785267E-1,-6.2522846E-1,-4.7306654E-1,-3.4250897E-1,-2.336329E-1,-1.0402941E-1,7.460185E-2,2.6862064E-1,4.1831088E-1,5.524688E-1,7.0113397E-1,8.4180385E-1,1.0186481E0],"categories":[],"categories_nodes":[],"categories_segments":[],"categories_sizes":[],"default_left":[0,0,0,0,0,0,0,0,0,0,0,0,0,0,0,0,0,0,0,0,0,0,0,0,0,0,0,0,0,0,0,0,0,0,0,0,0,0,0,0,0,0,0],"id":0,"left_children":[1,3,5,7,9,11,13,-1,15,17,19,21,23,25,27,-1,-1,29,31,33,35,37,39,41,-1,-1,-1,-1,-1,-1,-1,-1,-1,-1,-1,-1,-1,-1,-1,-1,-1,-1,-1],"loss_changes":[1.5010745E6,3.955843E5,4.5287562E5,7.974375E3,1.987568E4,3.3032188E4,4.6966875E4,0E0,1.9090625E3,3.5596328E3,3.157458E3,3.9435E3,4.10775E3,1.8294062E3,1.977375E3,0E0,0E0,6.5258984E2,4.6457422E2,2.4770117E2,6.949427E2,6.70709E2,2.296914E2,5.9570312E1,0E0,0E0,0E0,0E0,0E0,0E0,0E0,0E0,0E0,0E0,0E0,0E0,0E0,0E0,0E0,0E0,0E0,0E0,0E0],"parents":[2147483647,0,0,1,1,2,2,3,3,4,4,5,5,6,6,8,8,9,9,10,10,11,11,12,12,13,13,14,14,17,17,18,18,19,19,20,20,21,21,22,22,23,23],"right_children":[2,4,6,8,10,12,14,-1,16,18,20,22,24,26,28,-1,-1,30,32,34,36,38,40,42,-1,-1,-1,-1,-1,-1,-1,-1,-1,-1,-1,-1,-1,-1,-1,-1,-1,-1,-1],"split_conditions":[9.829921E1,6.58163E1,1.303464E2,5.2698208E1,8.676231E1,1.112273E2,1.512038E2,-2.3357592E0,6.04592E1,8.05755E1,9.1478294E1,1.055102E2,1.1884351E2,1.401694E2,1.6757776E2,-1.9665991E0,-1.5284466E0,7.65451E1,8.423348E1,8.965007E1,9.484543E1,1.019901E2,1.076228E2,8E0,1.3816389E0,1.9771343E0,2.462303E0,3.2255776E0,3.9701843E0,-1.0789908E0,-7.785267E-1,-6.2522846E-1,-4.7306654E-1,-3.4250897E-1,-2.336329E-1,-1.0402941E-1,7.460185E-2,2.6862064E-1,4.1831088E-1,5.524688E-1,7.0113397E-1,8.4180385E-1,1.0186481E0],"split_indices":[15,10,0,15,15,0,0,0,0,0,15,15,15,0,15,0,0,2,15,15,15,15,15,31,0,0,0,0,0,0,0,0,0,0,0,0,0,0,0,0,0,0,0],"split_type":[0,0,0,0,0,0,0,0,0,0,0,0,0,0,0,0,0,0,0,0,0,0,0,0,0,0,0,0,0,0,0,0,0,0,0,0,0,0,0,0,0,0,0],"sum_hessian":[2.554E3,1.444E3,1.11E3,5.77E2,8.67E2,7.52E2,3.58E2,2.11E2,3.66E2,3.71E2,4.96E2,4.98E2,2.54E2,1.62E2,1.96E2,3.16E2,5E1,1.19E2,2.52E2,2.47E2,2.49E2,3.19E2,1.79E2,1.39E2,1.15E2,9.5E1,6.7E1,1.61E2,3.5E1,3.9E1,8E1,1.18E2,1.34E2,1.47E2,1E2,1.7E2,7.9E1,1.62E2,1.57E2,7.9E1,1E2,5.6E1,8.3E1],"tree_param":{"num_deleted":"0","num_feature":"34","num_nodes":"43","size_leaf_vector":"1"}},{"base_weights":[7.785471E-2,-1.990962E1,2.6081526E1,-3.941481E1,-7.2709327E0,1.3124683E1,5.4272156E1,-2.234559E0,-3.6346806E1,-1.2886769E1,-3.7941835E0,8.841347E0,2.302356E1,4.186628E1,6.418499E1,-1.8779854E0,-1.4807099E0,-1.619476E1,-1.03421135E1,-5.9620147E0,-1.1591944E0,5.98896E0,1.1847623E1,9.427369E-1,2.6553387E1,1.8607842E0,2.3556614E0,3.0720384E0,3.7729561E0,-1.0214392E0,-7.2334665E-1,-5.645874E-1,-4.3941084E-1,-3.5791358E-1,-2.3500536E-1,-1.1046336E-1,4.392776E-2,2.349193E-1,3.5861394E-1,5.0548846E-1,6.828944E-1,1.2117463E0,1.4731737E0],"categories":[],"categories_nodes":[],"categories_segments":[],"categories_sizes":[],"default_left":[0,0,0,0,0,0,0,0,0,0,0,0,0,0,0,0,0,0,0,0,0,0,0,0,0,0,0,0,0,0,0,0,0,0,0,0,0,0,0,0,0,0,0],"id":1,"left_children":[1,3,5,7,9,11,13,-1,15,17,19,21,23,25,27,-1,-1,29,31,33,35,37,39,-1,41,-1,-1,-1,-1,-1,-1,-1,-1,-1,-1,-1,-1,-1,-1,-1,-1,-1,-1],"loss_changes":[1.31912E6,3.5346494E5,4.021645E5,7.4975E3,1.697511E4,3.1890219E4,3.9975312E4,0E0,1.8370938E3,2.6329531E3,3.0769707E3,4.472043E3,2.8498672E3,2.06925E3,1.259375E3,0E0,0E0,7.471094E2,1.8060352E2,4.12E2,5.263214E2,3.8355664E2,6.680586E2,0E0,9.696094E1,0E0,0E0,0E0,0E0,0E0,0E0,0E0,0E0,0E0,0E0,0E0,0E0,0E0,0E0,0E0,0E0,0E0,0E0],"parents":[2147483647,0,0,1,1,2,2,3,3,4,4,5,5,6,6,8,8,9,9,10,10,11,11,12,12,13,13,14,14,17,17,18,18,19,19,20,20,21,21,22,22,24,24],"right_children":[2,4,6,8,10,12,14,-1,16,18,20,22,24,26,28,-1,-1,30,32,34,36,38,40,-1,42,-1,-1,-1,-1,-1,-1,-1,-1,-1,-1,-1,-1,-1,-1,-1,-1,-1,-1],"split_conditions":[9.799171E1,6.58163E1,1.303464E2,5.21173E1,8.622466E1,1.1237688E2,1.5163832E2,-2.234559E0,5.92296E1,8.146856E1,9.123695E1,1.04148575E2,1.184851E2,1.4005318E2,1.6757776E2,-1.8779854E0,-1.4807099E0,7.65528E1,8.47739E1,8.874878E1,9.434848E1,1.01211975E2,1.076228E2,9.427369E-1,1.2355904E2,1.8607842E0,2.3556614E0,3.0720384E0,3.7729561E0,-1.0214392E0,-7.2334665E-1,-5.645874E-1,-4.3941084E-1,-3.5791358E-1,-2.3500536E-1,-1.1046336E-1,4.392776E-2,2.349193E-1,3.5861394E-1,5.0548846E-1,6.828944E-1,1.2117463E0,1.4731737E0],"split_indices":[15,10,0,0,15,15,15,0,0,15,15,15,0,15,15,0,0,0,0,15,15,15,15,0,15,0,0,0,0,0,0,0,0,0,0,0,0,0,0,0,0,0,0],"split_type":[0,0,0,0,0,0,0,0,0,0,0,0,0,0,0,0,0,0,0,0,0,0,0,0,0,0,0,0,0,0,0,0,0,0,0,0,0,0,0,0,0,0,0],"sum_hessian":[2.536E3,1.434E3,1.102E3,5.63E2,8.71E2,7.56E2,3.46E2,2.02E2,3.61E2,3.32E2,5.39E2,5.29E2,2.27E2,1.56E2,1.9E2,3.02E2,5.9E1,1.42E2,1.9E2,2.95E2,2.44E2,2.73E2,2.56E2,1.07E2,1.2E2,8.7E1,6.9E1,1.58E2,3.2E1,3.8E1,1.04E2,1.14E2,7.6E1,1.49E2,1.46E2,1.61E2,8.3E1,1.33E2,1.4E2,1.34E2,1.22E2,7.2E1,4.8E1],"tree_param":{"num_deleted":"0","num_feature":"34","num_nodes":"43","size_leaf_vector":"1"}},{"base_weights":[4.942128E-1,-1.965821E1,2.4901865E1,-3.745891E1,-6.984857E0,1.2310783E1,5.148733E1,-2.1134315E0,-3.444203E1,-1.2668831E1,-3.8867524E0,8.162974E0,2.1264112E1,3.9995693E1,6.0630306E1,-1.7674938E0,-1.3462453E0,-1.7030916E1,-1.0891658E1,-5.6867766E0,-1.0761507E0,5.623694E0,1.1112524E1,1.760818E1,1.2637357E0,1.7698421E0,2.2083437E0,2.8250532E0,3.3392868E0,-9.735679E-1,-7.149403E-1,-6.0900027E-1,-4.7153512E-1,-3.4531665E-1,-2.0790839E-1,-8.586871E-2,5.1223792E-2,2.0898752E-1,3.475848E-1,4.8132658E-1,6.3739127E-1,7.687982E-1,9.3301964E-1],"categories":[],"categories_nodes":[],"categories_segments":[],"categories_sizes":[],"default_left":[0,0,0,0,0,0,0,0,0,0,0,0,0,0,0,0,0,0,0,0,0,0,0,0,0,0,0,0,0,0,0,0,0,0,0,0,0,0,0,0,0,0,0],"id":2,"left_children":[1,3,5,7,9,11,13,-1,15,17,19,21,23,25,27,-1,-1,29,31,33,35,37,39,41,-1,-1,-1,-1,-1,-1,-1,-1,-1,-1,-1,-1,-1,-1,-1,-1,-1,-1,-1],"loss_changes":[1.2464052E6,3.1285925E5,3.8297162E5,6.9089375E3,1.4248059E4,2.875296E4,3.6229938E4,0E0,1.4987812E3,2.0288359E3,2.659376E3,3.9353477E3,3.1576484E3,1.613E3,1.373875E3,0E0,0E0,2.5827734E2,2.7071094E2,5.685928E2,2.806518E2,5.240049E2,4.7283594E2,1.9714844E1,0E0,0E0,0E0,0E0,0E0,0E0,0E0,0E0,0E0,0E0,0E0,0E0,0E0,0E0,0E0,0E0,0E0,0E0,0E0],"parents":[2147483647,0,0,1,1,2,2,3,3,4,4,5,5,6,6,8,8,9,9,10,10,11,11,12,12,13,13,14,14,17,17,18,18,19,19,20,20,21,21,22,22,23,23],"right_children":[2,4,6,8,10,12,14,-1,16,18,20,22,24,26,28,-1,-1,30,32,34,36,38,40,42,-1,-1,-1,-1,-1,-1,-1,-1,-1,-1,-1,-1,-1,-1,-1,-1,-1,-1,-1],"split_conditions":[9.74325E1,6.7538765E1,1.303464E2,5.25824E1,8.5552E1,1.116405E2,1.512038E2,-2.1134315E0,6.077116E1,7.92902E1,9.19117E1,1.043522E2,1.1864208E2,1.389769E2,1.632479E2,-1.7674938E0,-1.3462453E0,7.65451E1,8.304166E1,8.91129E1,9.54882E1,1.013138E2,1.0743518E2,7E0,1.2637357E0,1.7698421E0,2.2083437E0,2.8250532E0,3.3392868E0,-9.735679E-1,-7.149403E-1,-6.0900027E-1,-4.7153512E-1,-3.4531665E-1,-2.0790839E-1,-8.586871E-2,5.1223792E-2,2.0898752E-1,3.475848E-1,4.8132658E-1,6.3739127E-1,7.687982E-1,9.3301964E-1],"split_indices":[14,18,0,0,0,0,0,0,14,0,0,0,14,0,0,0,0,2,14,0,0,0,14,31,0,0,0,0,0,0,0,0,0,0,0,0,0,0,0,0,0,0,0],"split_type":[0,0,0,0,0,0,0,0,0,0,0,0,0,0,0,0,0,0,0,0,0,0,0,0,0,0,0,0,0,0,0,0,0,0,0,0,0,0,0,0,0,0,0],"sum_hessian":[2.532E3,1.387E3,1.145E3,5.76E2,8.11E2,7.78E2,3.67E2,2.17E2,3.59E2,2.85E2,5.26E2,5.33E2,2.45E2,1.65E2,2.02E2,3.17E2,4.2E1,8E1,2.05E2,3.2E2,2.06E2,2.88E2,2.45E2,1.31E2,1.14E2,8.3E1,8.2E1,1.27E2,7.5E1,3.9E1,4.1E1,1.05E2,1E2,1.76E2,1.44E2,1.58E2,4.8E1,1.4E2,1.48E2,1.32E2,1.13E2,4.7E1,8.4E1],"tree_param":{"num_deleted":"0","num_feature":"34","num_nodes":"43","size_leaf_vector":"1"}},{"base_weights":[5.9138946E-3,-1.8944834E1,2.2805101E1,-3.5490704E1,-6.926806E0,1.1525707E1,4.9047935E1,-1.9496831E0,-3.196261E1,-1.2264312E1,-4.049595E0,7.4279776E0,1.9953007E1,3.918475E1,5.925818E1,-1.6399101E0,-1.2216586E0,-1.6056154E1,-1.0553039E1,-6.1095357E0,-1.7624567E0,4.880371E0,1.0089237E1,1.6067295E1,2.3718065E1,1.6946312E0,2.1785762E0,2.8147912E0,3.457887E0,-9.2201674E-1,-6.866376E-1,-5.883419E-1,-4.4688264E-1,-3.631636E-1,-2.60552E-1,-1.4311732E-1,-2.8347267E-2,1.8202107E-1,3.0427465E-1,4.4563636E-1,5.9693295E-1,7.094518E-1,8.733395E-1,1.0676483E0,1.3517544E0],"categories":[],"categories_nodes":[],"categories_segments":[],"categories_sizes":[],"default_left":[0,0,0,0,0,0,0,0,0,0,0,0,0,0,0,0,0,0,0,0,0,0,0,0,0,0,0,0,0,0,0,0,0,0,0,0,0,0,0,0,0,0,0,0,0],"id":3,"left_children":[1,3,5,7,9,11,13,-1,15,17,19,21,23,25,27,-1,-1,29,31,33,35,37,39,41,43,-1,-1,-1,-1,-1,-1,-1,-1,-1,-1,-1,-1,-1,-1,-1,-1,-1,-1,-1,-1],"loss_changes":[1.1155834E6,2.801267E5,3.463445E5,6.0753125E3,1.2510832E4,2.8200469E4,3.31165E4,0E0,1.0866875E3,1.6837188E3,2.4996055E3,3.705295E3,3.5357578E3,2.7406875E3,1.1089375E3,0E0,0E0,2.2547656E2,2.849121E2,2.5115918E2,3.320266E2,4.027461E2,4.789922E2,1.03859375E2,4.69125E2,0E0,0E0,0E0,0E0,0E0,0E0,0E0,0E0,0E0,0E0,0E0,0E0,0E0,0E0,0E0,0E0,0E0,0E0,0E0,0E0],"parents":[2147483647,0,0,1,1,2,2,3,3,4,4,5,5,6,6,8,8,9,9,10,10,11,11,12,12,13,13,14,14,17,17,18,18,19,19,20,20,21,21,22,22,23,23,24,24],"right_children":[2,4,6,8,10,12,14,-1,16,18,20,22,24,26,28,-1,-1,30,32,34,36,38,40,42,44,-1,-1,-1,-1,-1,-1,-1,-1,-1,-1,-1,-1,-1,-1,-1,-1,-1,-1,-1,-1],"split_conditions":[9.6731384E1,6.58163E1,1.303464E2,5.37976E1,8.5563896E1,1.109589E2,1.554871E2,-1.9496831E0,6.21011E1,7.969073E1,9.05528E1,1.0370729E2,1.1705555E2,1.4005318E2,1.68627E2,-1.6399101E0,-1.2216586E0,7.752492E1,8.333421E1,8.763783E1,9.317844E1,1.008744E2,1.076228E2,1.138752E2,1.2355904E2,1.6946312E0,2.1785762E0,2.8147912E0,3.457887E0,-9.2201674E-1,-6.866376E-1,-5.883419E-1,-4.4688264E-1,-3.631636E-1,-2.60552E-1,-1.4311732E-1,-2.8347267E-2,1.8202107E-1,3.0427465E-1,4.4563636E-1,5.9693295E-1,7.094518E-1,8.733395E-1,1.0676483E0,1.3517544E0],"split_indices":[15,10,0,0,15,15,0,0,0,15,15,15,15,15,0,0,0,14,15,15,15,0,15,0,15,0,0,0,0,0,0,0,0,0,0,0,0,0,0,0,0,0,0,0,0],"split_type":[0,0,0,0,0,0,0,0,0,0,0,0,0,0,0,0,0,0,0,0,0,0,0,0,0,0,0,0,0,0,0,0,0,0,0,0,0,0,0,0,0,0,0,0,0],"sum_hessian":[2.58E3,1.409E3,1.171E3,5.92E2,8.17E2,8.2E2,3.51E2,2.92E2,3E2,2.85E2,5.32E2,5.53E2,2.67E2,1.81E2,1.7E2,2.67E2,3.3E1,8.6E1,1.99E2,2.79E2,2.53E2,2.84E2,2.69E2,1.34E2,1.33E2,8.6E1,9.5E1,1.36E2,3.4E1,3.9E1,4.7E1,1.1E2,8.9E1,1.19E2,1.6E2,1.31E2,1.22E2,1.42E2,1.42E2,1.68E2,1.01E2,6.2E1,7.2E1,8.2E1,5.1E1],"tree_param":{"num_deleted":"0","num_feature":"34","num_nodes":"45","size_leaf_vector":"1"}},{"base_weights":[1.15542606E-1,-1.7592928E1,2.2157913E1,-3.391E1,-6.305315E0,1.1654E1,4.8014812E1,-1.9162651E0,-3.1300163E1,-1.0418462E1,-2.6481438E0,8.004018E0,2.1378145E1,3.7162235E1,5.5188946E1,-1.6154547E0,-1.2829032E0,-1.4010147E1,-8.369101E0,-4.255293E0,-7.202741E-1,5.5657706E0,1.1293963E1,1.8649958E1,1.338178E0,1.6497735E0,2.041752E0,2.606189E0,3.1236885E0,-8.7522507E-1,-6.23361E-1,-4.9662575E-1,-3.747276E-1,-2.5636044E-1,-1.7535195E-1,-5.97849E-2,8.44536E-2,2.1453618E-1,3.5114232E-1,4.9622652E-1,6.551329E-1,8.2776976E-1,1.0184935E0],"categories":[],"categories_nodes":[],"categories_segments":[],"categories_sizes":[],"default_left":[0,0,0,0,0,0,0,0,0,0,0,0,0,0,0,0,0,0,0,0,0,0,0,0,0,0,0,0,0,0,0,0,0,0,0,0,0,0,0,0,0,0,0],"id":4,"left_children":[1,3,5,7,9,11,13,-1,15,17,19,21,23,25,27,-1,-1,29,31,33,35,37,39,41,-1,-1,-1,-1,-1,-1,-1,-1,-1,-1,-1,-1,-1,-1,-1,-1,-1,-1,-1],"loss_changes":[9.988715E5,2.6113472E5,3.0905688E5,5.4769375E3,1.2606793E4,2.8646234E4,2.3555062E4,0E0,1.2714062E3,2.7879688E3,1.3783125E3,4.6843047E3,2.743336E3,6.959531E2,1.1086875E3,0E0,0E0,5.443672E2,2.7110547E2,1.396919E2,2.3564426E2,6.041162E2,4.8935742E2,1.9944531E2,0E0,0E0,0E0,0E0,0E0,0E0,0E0,0E0,0E0,0E0,0E0,0E0,0E0,0E0,0E0,0E0,0E0,0E0,0E0],"parents":[2147483647,0,0,1,1,2,2,3,3,4,4,5,5,6,6,8,8,9,9,10,10,11,11,12,12,13,13,14,14,17,17,18,18,19,19,20,20,21,21,22,22,23,23],"right_children":[2,4,6,8,10,12,14,-1,16,18,20,22,24,26,28,-1,-1,30,32,34,36,38,40,42,-1,-1,-1,-1,-1,-1,-1,-1,-1,-1,-1,-1,-1,-1,-1,-1,-1,-1,-1],"split_conditions":[9.755877E1,6.786452E1,1.3250978E2,5.221433E1,8.743438E1,1.1349266E2,1.5163832E2,-1.9162651E0,5.896344E1,8.146856E1,9.2022064E1,1.055102E2,1.2355904E2,1.4005318E2,1.6535692E2,-1.6154547E0,-1.2829032E0,7.65451E1,8.423348E1,8.965007E1,9.61512E1,1.0213341E2,1.0949463E2,1.177466E2,1.338178E0,1.6497735E0,2.041752E0,2.606189E0,3.1236885E0,-8.7522507E-1,-6.23361E-1,-4.9662575E-1,-3.747276E-1,-2.5636044E-1,-1.7535195E-1,-5.97849E-2,8.44536E-2,2.1453618E-1,3.5114232E-1,4.9622652E-1,6.551329E-1,8.2776976E-1,1.0184935E0],"split_indices":[15,14,15,15,15,15,15,0,15,15,15,15,15,15,15,0,0,2,15,15,14,15,15,2,0,0,0,0,0,0,0,0,0,0,0,0,0,0,0,0,0,0,0],"split_type":[0,0,0,0,0,0,0,0,0,0,0,0,0,0,0,0,0,0,0,0,0,0,0,0,0,0,0,0,0,0,0,0,0,0,0,0,0,0,0,0,0,0,0],"sum_hessian":[2.557E3,1.418E3,1.139E3,5.79E2,8.39E2,8.11E2,3.28E2,2.1E2,3.69E2,3.94E2,4.45E2,5.91E2,2.2E2,1.33E2,1.95E2,3.09E2,6E1,1.41E2,2.53E2,2.42E2,2.03E2,3.41E2,2.5E2,1.49E2,7.1E1,6.7E1,6.6E1,1.43E2,5.2E1,4E1,1.01E2,8.7E1,1.66E2,1.09E2,1.33E2,1.7E2,3.3E1,1.84E2,1.57E2,1.46E2,1.04E2,7.2E1,7.7E1],"tree_param":{"num_deleted":"0","num_feature":"34","num_nodes":"43","size_leaf_vector":"1"}},{"base_weights":[3.981022E-2,-1.645459E1,2.1594711E1,-3.2145527E1,-5.788806E0,1.0680575E1,4.4639412E1,-3.5015984E1,-2.8278408E1,-9.836267E0,-2.440294E0,6.9048977E0,1.774774E1,3.4336823E1,5.256664E1,-1.8476032E0,-1.6175231E0,-1.4480134E0,-1.0223923E0,-1.3579443E1,-7.9836144E0,-3.9957685E0,-1.8141851E-1,5.295045E0,9.888697E0,1.4724254E1,2.1656788E1,1.5106312E0,1.9015282E0,2.4648263E0,2.998068E0,-8.341471E-1,-5.97139E-1,-4.576385E-1,-3.4407532E-1,-2.4555147E-1,-1.557454E-1,-5.120414E-2,6.575804E-2,2.1121638E-1,3.3222303E-1,4.3473658E-1,5.388214E-1,6.5749943E-1,8.1022805E-1,9.8151124E-1,1.2089802E0],"categories":[],"categories_nodes":[],"categories_segments":[],"categories_sizes":[],"default_left":[0,0,0,0,0,0,0,0,0,0,0,0,0,0,0,0,0,0,0,0,0,0,0,0,0,0,0,0,0,0,0,0,0,0,0,0,0,0,0,0,0,0,0,0,0,0,0],"id":5,"left_children":[1,3,5,7,9,11,13,15,17,19,21,23,25,27,29,-1,-1,-1,-1,31,33,35,37,39,41,43,45,-1,-1,-1,-1,-1,-1,-1,-1,-1,-1,-1,-1,-1,-1,-1,-1,-1,-1,-1,-1],"loss_changes":[9.169255E5,2.443174E5,2.8070922E5,5.5638125E3,1.177941E4,2.0154328E4,2.750625E4,5.265E2,7.751094E2,2.62175E3,1.6783689E3,2.3334473E3,2.7976875E3,1.2663281E3,1.893625E3,0E0,0E0,0E0,0E0,4.5313672E2,2.781621E2,2.1205957E2,2.4849606E2,4.4041895E2,8.77207E1,1.381914E2,9.869531E1,0E0,0E0,0E0,0E0,0E0,0E0,0E0,0E0,0E0,0E0,0E0,0E0,0E0,0E0,0E0,0E0,0E0,0E0,0E0,0E0],"parents":[2147483647,0,0,1,1,2,2,3,3,4,4,5,5,6,6,7,7,8,8,9,9,10,10,11,11,12,12,13,13,14,14,19,19,20,20,21,21,22,22,23,23,24,24,25,25,26,26],"right_children":[2,4,6,8,10,12,14,16,18,20,22,24,26,28,30,-1,-1,-1,-1,32,34,36,38,40,42,44,46,-1,-1,-1,-1,-1,-1,-1,-1,-1,-1,-1,-1,-1,-1,-1,-1,-1,-1,-1,-1],"split_conditions":[9.82589E1,6.58163E1,1.303464E2,5.4717186E1,8.743438E1,1.1066455E2,1.5163832E2,5.02053E1,6.3614437E1,8.10788E1,9.273727E1,1.055102E2,1.1884351E2,1.389769E2,1.658089E2,-1.8476032E0,-1.6175231E0,-1.4480134E0,-1.0223923E0,7.65451E1,8.47739E1,9.00327E1,9.51538E1,1.023743E2,1.076228E2,1.146093E2,1.2355904E2,1.5106312E0,1.9015282E0,2.4648263E0,2.998068E0,-8.341471E-1,-5.97139E-1,-4.576385E-1,-3.4407532E-1,-2.4555147E-1,-1.557454E-1,-5.120414E-2,6.575804E-2,2.1121638E-1,3.3222303E-1,4.3473658E-1,5.388214E-1,6.5749943E-1,8.1022805E-1,9.8151124E-1,1.2089802E0],"split_indices":[0,10,0,15,15,15,15,0,15,0,15,15,15,0,0,0,0,0,0,2,0,0,15,15,15,0,15,0,0,0,0,0,0,0,0,0,0,0,0,0,0,0,0,0,0,0,0],"split_type":[0,0,0,0,0,0,0,0,0,0,0,0,0,0,0,0,0,0,0,0,0,0,0,0,0,0,0,0,0,0,0,0,0,0,0,0,0,0,0,0,0,0,0,0,0,0,0],"sum_hessian":[2.577E3,1.46E3,1.117E3,5.9E2,8.7E2,7.59E2,3.58E2,3.34E2,2.56E2,3.93E2,4.77E2,4.96E2,2.63E2,1.58E2,2E2,1.86E2,1.48E2,2.33E2,2.3E1,1.28E2,2.65E2,2.82E2,1.95E2,3.24E2,1.72E2,1.51E2,1.12E2,7.9E1,7.9E1,1.44E2,5.6E1,4.1E1,8.7E1,1.25E2,1.4E2,1.36E2,1.46E2,1.25E2,7E1,1.83E2,1.41E2,7.8E1,9.4E1,7.8E1,7.3E1,6.7E1,4.5E1],"tree_param":{"num_deleted":"0","num_feature":"34","num_nodes":"47","size_leaf_vector":"1"}},{"base_weights":[2.1919587E-1,-1.56557045E1,2.0542917E1,-3.063686E1,-5.475299E0,1.0736027E1,4.3220123E1,-1.7513142E0,-2.833437E1,-9.547657E0,-2.5120525E0,7.0734544E0,1.8423687E1,1.6164837E0,4.9193417E1,-1.4759312E0,-2.415681E1,-1.2696639E1,-7.698469E0,-4.3154736E0,-6.466963E-1,5.034816E0,9.645447E0,1.5953901E1,1.1475811E0,2.9870718E0,2.3453338E0,-1.2676464E0,-9.624198E-1,-8.044111E-1,-5.6280845E-1,-4.4854584E-1,-3.430445E-1,-2.6244217E-1,-1.8247814E-1,-7.420158E-2,6.0453277E-2,2.0134667E-1,3.0940387E-1,4.0948683E-1,5.5461824E-1,6.991446E-1,8.8232815E-1],"categories":[],"categories_nodes":[],"categories_segments":[],"categories_sizes":[],"default_left":[0,0,0,0,0,0,0,0,0,0,0,0,0,0,0,0,0,0,0,0,0,0,0,0,0,0,0,0,0,0,0,0,0,0,0,0,0,0,0,0,0,0,0],"id":6,"left_children":[1,3,5,7,9,11,13,-1,15,17,19,21,23,-1,25,-1,27,29,31,33,35,37,39,41,-1,-1,-1,-1,-1,-1,-1,-1,-1,-1,-1,-1,-1,-1,-1,-1,-1,-1,-1],"loss_changes":[8.2691825E5,2.192966E5,2.4950012E5,4.8833125E3,1.0328639E4,2.1998219E4,2.0454E4,0E0,1.1961562E3,2.0023438E3,1.6719968E3,2.7499258E3,2.45925E3,0E0,2.42125E3,0E0,4.180078E1,4.6105664E2,1.8199707E2,1.372041E2,3.8407986E2,3.2276514E2,4.0220703E2,3.0723828E2,0E0,0E0,0E0,0E0,0E0,0E0,0E0,0E0,0E0,0E0,0E0,0E0,0E0,0E0,0E0,0E0,0E0,0E0,0E0],"parents":[2147483647,0,0,1,1,2,2,3,3,4,4,5,5,6,6,8,8,9,9,10,10,11,11,12,12,14,14,16,16,17,17,18,18,19,19,20,20,21,21,22,22,23,23],"right_children":[2,4,6,8,10,12,14,-1,16,18,20,22,24,-1,26,-1,28,30,32,34,36,38,40,42,-1,-1,-1,-1,-1,-1,-1,-1,-1,-1,-1,-1,-1,-1,-1,-1,-1,-1,-1],"split_conditions":[9.829921E1,6.7864555E1,1.3250978E2,5.108009E1,8.693399E1,1.1237688E2,1.4678287E2,-1.7513142E0,5.7669262E1,8.146856E1,9.1478294E1,1.0489569E2,1.2137251E2,1.6164837E0,3E0,-1.4759312E0,6.3614437E1,7.65451E1,8.423348E1,8.874878E1,9.484543E1,1.0213341E2,1.08385124E2,1.1639503E2,1.1475811E0,2.9870718E0,2.3453338E0,-1.2676464E0,-9.624198E-1,-8.044111E-1,-5.6280845E-1,-4.4854584E-1,-3.430445E-1,-2.6244217E-1,-1.8247814E-1,-7.420158E-2,6.0453277E-2,2.0134667E-1,3.0940387E-1,4.0948683E-1,5.5461824E-1,6.991446E-1,8.8232815E-1],"split_indices":[15,15,15,15,15,15,15,0,15,15,15,15,15,0,31,0,15,2,15,15,15,15,15,15,0,0,0,0,0,0,0,0,0,0,0,0,0,0,0,0,0,0,0],"split_type":[0,0,0,0,0,0,0,0,0,0,0,0,0,0,0,0,0,0,0,0,0,0,0,0,0,0,0,0,0,0,0,0,0,0,0,0,0,0,0,0,0,0,0],"sum_hessian":[2.561E3,1.438E3,1.123E3,5.81E2,8.57E2,7.85E2,3.38E2,1.95E2,3.86E2,3.6E2,4.97E2,5.33E2,2.52E2,1.22E2,2.16E2,2.96E2,9E1,1.31E2,2.29E2,2.52E2,2.45E2,2.99E2,2.34E2,1.66E2,8.6E1,3.4E1,1.82E2,6.9E1,2.1E1,3.6E1,9.5E1,8.7E1,1.42E2,1.02E2,1.5E2,1.69E2,7.6E1,1.62E2,1.37E2,1.2E2,1.14E2,8.1E1,8.5E1],"tree_param":{"num_deleted":"0","num_feature":"34","num_nodes":"43","size_leaf_vector":"1"}},{"base_weights":[1.508364E-1,-1.4447866E1,1.9650957E1,-2.8770939E1,-4.877343E0,9.94912E0,3.978333E1,-3.1466515E1,-2.5312529E1,-8.429859E0,-1.7432936E0,6.556718E0,1.6507378E1,3.1037544E1,4.722817E1,-1.664674E0,-1.4644719E0,-1.3194546E0,-9.495721E-1,-1.0691429E1,-6.453291E0,-3.1122518E0,3.591948E-1,4.479564E0,8.533272E0,1.3513732E1,1.9842312E1,1.3668004E0,1.7123947E0,2.1227982E0,2.5428498E0,-6.80865E-1,-4.952248E-1,-3.6777094E-1,-2.859225E-1,-1.9767237E-1,-1.1092224E-1,-2.7656356E-2,9.294739E-2,1.6168809E-1,2.4772148E-1,3.5461757E-1,4.7567865E-1,5.861363E-1,7.285419E-1,8.8339394E-1,1.104519E0],"categories":[],"categories_nodes":[],"categories_segments":[],"categories_sizes":[],"default_left":[0,0,0,0,0,0,0,0,0,0,0,0,0,0,0,0,0,0,0,0,0,0,0,0,0,0,0,0,0,0,0,0,0,0,0,0,0,0,0,0,0,0,0,0,0,0,0],"id":7,"left_children":[1,3,5,7,9,11,13,15,17,19,21,23,25,27,29,-1,-1,-1,-1,31,33,35,37,39,41,43,45,-1,-1,-1,-1,-1,-1,-1,-1,-1,-1,-1,-1,-1,-1,-1,-1,-1,-1,-1,-1],"loss_changes":[7.3474975E5,2.0218534E5,2.154289E5,4.707375E3,9.848797E3,1.6508898E4,2.1901125E4,3.2321875E2,1.2908125E3,1.7844004E3,1.3599125E3,1.9886445E3,2.2643672E3,1.0540312E3,1.1564688E3,0E0,0E0,0E0,0E0,3.048496E2,1.0512598E2,2.0564624E2,2.57023E2,1.26916016E2,2.8682422E2,8.594336E1,1.8255078E2,0E0,0E0,0E0,0E0,0E0,0E0,0E0,0E0,0E0,0E0,0E0,0E0,0E0,0E0,0E0,0E0,0E0,0E0,0E0,0E0],"parents":[2147483647,0,0,1,1,2,2,3,3,4,4,5,5,6,6,7,7,8,8,9,9,10,10,11,11,12,12,13,13,14,14,19,19,20,20,21,21,22,22,23,23,24,24,25,25,26,26],"right_children":[2,4,6,8,10,12,14,16,18,20,22,24,26,28,30,-1,-1,-1,-1,32,34,36,38,40,42,44,46,-1,-1,-1,-1,-1,-1,-1,-1,-1,-1,-1,-1,-1,-1,-1,-1,-1,-1,-1,-1],"split_conditions":[9.910638E1,6.75737E1,1.303464E2,5.4717186E1,8.8172554E1,1.116405E2,1.5163832E2,5.02053E1,6.2260387E1,8.333421E1,9.3320145E1,1.04148575E2,1.1864208E2,1.389769E2,1.608654E2,-1.664674E0,-1.4644719E0,-1.3194546E0,-9.495721E-1,7.76027E1,8.5552E1,9.05528E1,9.61512E1,-1.1266735E-2,1.065643E2,8E0,1.2355904E2,1.3668004E0,1.7123947E0,2.1227982E0,2.5428498E0,-6.80865E-1,-4.952248E-1,-3.6777094E-1,-2.859225E-1,-1.9767237E-1,-1.1092224E-1,-2.7656356E-2,9.294739E-2,1.6168809E-1,2.4772148E-1,3.5461757E-1,4.7567865E-1,5.861363E-1,7.285419E-1,8.8339394E-1,1.104519E0],"split_indices":[15,10,0,15,15,0,15,0,15,15,15,15,14,0,15,0,0,0,0,0,0,15,14,26,15,31,15,0,0,0,0,0,0,0,0,0,0,0,0,0,0,0,0,0,0,0,0],"split_type":[0,0,0,0,0,0,0,0,0,0,0,0,0,0,0,0,0,0,0,0,0,0,0,0,0,0,0,0,0,0,0,0,0,0,0,0,0,0,0,0,0,0,0,0,0,0,0],"sum_hessian":[2.579E3,1.475E3,1.104E3,5.9E2,8.85E2,7.46E2,3.58E2,3.27E2,2.63E2,4.14E2,4.71E2,4.93E2,2.53E2,1.67E2,1.91E2,1.7E2,1.57E2,2.22E2,4.1E1,1.91E2,2.23E2,2.85E2,1.86E2,2.42E2,2.51E2,1.36E2,1.17E2,8.2E1,8.5E1,8.8E1,1.03E2,3.7E1,1.54E2,9.6E1,1.27E2,1.45E2,1.4E2,1.16E2,7E1,6.9E1,1.73E2,1.05E2,1.46E2,5.5E1,8.1E1,6.4E1,5.3E1],"tree_param":{"num_deleted":"0","num_feature":"34","num_nodes":"47","size_leaf_vector":"1"}},{"base_weights":[6.981503E-2,-1.40904E1,1.839184E1,-2.7626654E1,-4.971471E0,9.433565E0,3.821714E1,-1.5824832E0,-2.5512053E1,-8.485627E0,-2.0619633E0,6.0432067E0,1.5725113E1,2.973786E1,4.531258E1,-1.3215207E0,-1.0605496E0,-1.15463915E1,-6.8807344E0,-3.3399014E0,-6.472614E-2,4.102716E0,7.876738E0,1.296577E1,1.8992195E1,1.2860849E0,1.6128114E0,2.7466466E0,2.1327267E0,-7.2127026E-1,-5.098691E-1,-3.9544174E-1,-3.0277726E-1,-2.0071296E-1,-1.1187203E-1,-3.3222847E-2,7.6693214E-2,1.8603016E-1,2.8850642E-1,3.434633E-1,4.6344E-1,5.8119106E-1,7.175871E-1,8.514077E-1,1.0518812E0],"categories":[],"categories_nodes":[],"categories_segments":[],"categories_sizes":[],"default_left":[0,0,0,0,0,0,0,0,0,0,0,0,0,0,0,0,0,0,0,0,0,0,0,0,0,0,0,0,0,0,0,0,0,0,0,0,0,0,0,0,0,0,0,0,0],"id":8,"left_children":[1,3,5,7,9,11,13,-1,15,17,19,21,23,25,27,-1,-1,29,31,33,35,37,39,41,43,-1,-1,-1,-1,-1,-1,-1,-1,-1,-1,-1,-1,-1,-1,-1,-1,-1,-1,-1,-1],"loss_changes":[6.6417625E5,1.7810119E5,1.978369E5,4.1294375E3,8.815387E3,1.6327352E4,1.9521969E4,0E0,9.592969E2,1.8393789E3,1.2092551E3,1.7525781E3,2.1755938E3,7.9290625E2,2.4289375E3,0E0,0E0,3.6698438E2,1.704414E2,2.0525122E2,1.792549E2,1.3431885E2,2.951494E2,1.0770703E2,1.2405469E2,0E0,0E0,0E0,0E0,0E0,0E0,0E0,0E0,0E0,0E0,0E0,0E0,0E0,0E0,0E0,0E0,0E0,0E0,0E0,0E0],"parents":[2147483647,0,0,1,1,2,2,3,3,4,4,5,5,6,6,8,8,9,9,10,10,11,11,12,12,13,13,14,14,17,17,18,18,19,19,20,20,21,21,22,22,23,23,24,24],"right_children":[2,4,6,8,10,12,14,-1,16,18,20,22,24,26,28,-1,-1,30,32,34,36,38,40,42,44,-1,-1,-1,-1,-1,-1,-1,-1,-1,-1,-1,-1,-1,-1,-1,-1,-1,-1,-1,-1],"split_conditions":[9.829921E1,6.58163E1,1.2976347E2,5.108009E1,8.743438E1,1.109589E2,1.5163832E2,-1.5824832E0,5.830368E1,8.146856E1,9.273727E1,1.0396785E2,1.196366E2,1.3750803E2,3E0,-1.3215207E0,-1.0605496E0,7.64206E1,8.464428E1,9.05528E1,9.61512E1,2.0804241E-2,1.076228E2,1.1507278E2,1.2355904E2,1.2860849E0,1.6128114E0,2.7466466E0,2.1327267E0,-7.2127026E-1,-5.098691E-1,-3.9544174E-1,-3.0277726E-1,-2.0071296E-1,-1.1187203E-1,-3.3222847E-2,7.6693214E-2,1.8603016E-1,2.8850642E-1,3.434633E-1,4.6344E-1,5.8119106E-1,7.175871E-1,8.514077E-1,1.0518812E0],"split_indices":[15,10,14,15,15,15,15,0,14,15,15,15,2,15,31,0,0,4,15,15,14,26,15,15,15,0,0,0,0,0,0,0,0,0,0,0,0,0,0,0,0,0,0,0,0],"split_type":[0,0,0,0,0,0,0,0,0,0,0,0,0,0,0,0,0,0,0,0,0,0,0,0,0,0,0,0,0,0,0,0,0,0,0,0,0,0,0,0,0,0,0,0,0],"sum_hessian":[2.558E3,1.443E3,1.115E3,5.8E2,8.63E2,7.69E2,3.46E2,1.95E2,3.85E2,3.9E2,4.73E2,5.01E2,2.68E2,1.6E2,1.86E2,3.13E2,7.2E1,1.32E2,2.58E2,2.88E2,1.85E2,2.45E2,2.56E2,1.48E2,1.2E2,6.6E1,9.4E1,3.6E1,1.5E2,3.9E1,9.3E1,1.11E2,1.47E2,1.77E2,1.11E2,1.35E2,5E1,2.02E2,4.3E1,1.52E2,1.04E2,8E1,6.8E1,6.6E1,5.4E1],"tree_param":{"num_deleted":"0","num_feature":"34","num_nodes":"45","size_leaf_vector":"1"}},{"base_weights":[4.4588752E-2,-1.3462875E1,1.7479116E1,-2.6167883E1,-4.677603E0,8.899946E0,3.626333E1,-2.8561823E1,-2.2903677E1,-7.8208203E0,-1.8330964E0,6.0434804E0,1.5343466E1,2.8783031E1,4.3409515E1,-1.5100063E0,-1.3272552E0,-1.1822996E0,-8.29713E-1,-1.0769971E1,-6.408598E0,-3.2067974E0,-2.3876314E-1,4.437846E0,8.457059E0,6.371038E-1,9.007689E-1,1.2797576E0,1.6256838E0,2.6119463E0,2.0729144E0,-6.715974E-1,-4.9313387E-1,-3.81259E-1,-2.7690375E-1,-1.8286572E-1,-1.1781838E-1,-3.914734E-2,6.828015E-2,1.7561577E-1,2.827264E-1,3.71309E-1,4.842064E-1],"categories":[],"categories_nodes":[],"categories_segments":[],"categories_sizes":[],"default_left":[0,0,0,0,0,0,0,0,0,0,0,0,0,0,0,0,0,0,0,0,0,0,0,0,0,0,0,0,0,0,0,0,0,0,0,0,0,0,0,0,0,0,0],"id":9,"left_children":[1,3,5,7,9,11,13,15,17,19,21,23,25,27,29,-1,-1,-1,-1,31,33,35,37,39,41,-1,-1,-1,-1,-1,-1,-1,-1,-1,-1,-1,-1,-1,-1,-1,-1,-1,-1],"loss_changes":[5.993382E5,1.5993322E5,1.7871369E5,3.9199062E3,7.5755215E3,1.3967078E4,1.7345844E4,2.9615625E2,7.8853125E2,1.6077012E3,9.77881E2,2.0189766E3,1.393832E3,1.2194688E3,8.570625E2,0E0,0E0,0E0,0E0,1.7675488E2,2.4769727E2,8.2732666E1,1.8260944E2,3.4069336E2,1.932793E2,0E0,0E0,0E0,0E0,0E0,0E0,0E0,0E0,0E0,0E0,0E0,0E0,0E0,0E0,0E0,0E0,0E0,0E0],"parents":[2147483647,0,0,1,1,2,2,3,3,4,4,5,5,6,6,7,7,8,8,9,9,10,10,11,11,12,12,13,13,14,14,19,19,20,20,21,21,22,22,23,23,24,24],"right_children":[2,4,6,8,10,12,14,16,18,20,22,24,26,28,30,-1,-1,-1,-1,32,34,36,38,40,42,-1,-1,-1,-1,-1,-1,-1,-1,-1,-1,-1,-1,-1,-1,-1,-1,-1,-1],"split_conditions":[9.829921E1,7.181982E1,1.303464E2,5.4717186E1,8.7884155E1,1.125034E2,1.532937E2,4.9445698E1,6.40517E1,8.146856E1,9.223072E1,1.055102E2,1.197199E2,1.4253801E2,3E0,-1.5100063E0,-1.3272552E0,-1.1822996E0,-8.29713E-1,7.65528E1,8.464428E1,9.05528E1,9.61512E1,1.02535225E2,1.089603E2,6.371038E-1,9.007689E-1,1.2797576E0,1.6256838E0,2.6119463E0,2.0729144E0,-6.715974E-1,-4.9313387E-1,-3.81259E-1,-2.7690375E-1,-1.8286572E-1,-1.1781838E-1,-3.914734E-2,6.828015E-2,1.7561577E-1,2.827264E-1,3.71309E-1,4.842064E-1],"split_indices":[15,14,0,15,15,0,0,15,0,15,15,15,0,15,31,0,0,0,0,0,15,15,14,15,0,0,0,0,0,0,0,0,0,0,0,0,0,0,0,0,0,0,0],"split_type":[0,0,0,0,0,0,0,0,0,0,0,0,0,0,0,0,0,0,0,0,0,0,0,0,0,0,0,0,0,0,0,0,0,0,0,0,0,0,0,0,0,0,0],"sum_hessian":[2.543E3,1.433E3,1.11E3,5.85E2,8.48E2,7.63E2,3.47E2,3.33E2,2.52E2,4.02E2,4.46E2,5.3E2,2.33E2,1.72E2,1.75E2,1.76E2,1.57E2,2.23E2,2.9E1,1.28E2,2.74E2,2.39E2,2.07E2,3.2E2,2.1E2,1.21E2,1.12E2,9.7E1,7.5E1,2.7E1,1.48E2,2.9E1,9.9E1,1.11E2,1.63E2,1.54E2,8.5E1,1.55E2,5.2E1,1.84E2,1.36E2,1.18E2,9.2E1],"tree_param":{"num_deleted":"0","num_feature":"34","num_nodes":"43","size_leaf_vector":"1"}},{"base_weights":[-4.1196388E-1,-1.3560574E1,1.5930491E1,-2.4785736E1,-4.853709E0,8.096754E0,3.4278076E1,-2.6901684E1,-2.1523191E1,-8.125737E0,-2.6456873E0,4.9905934E0,1.3571891E1,2.7248592E1,4.139743E1,-1.4377569E0,-1.2564188E0,-1.1139387E0,-7.792676E-1,-1.0315415E1,-6.7571154E0,-3.9381266E0,-9.858695E-1,3.2676299E0,6.7625046E0,1.1105489E1,1.6426405E1,1.1782223E0,1.520924E0,1.9627323E0,2.4536765E0,-6.295449E-1,-4.6901184E-1,-3.82841E-1,-2.9756653E-1,-2.2767054E-1,-1.5660965E-1,-9.470028E-2,-2.5538577E-2,8.481801E-2,1.921561E-1,2.877384E-1,3.8615125E-1,4.970766E-1,6.178764E-1,7.3752666E-1,9.0670407E-1],"categories":[],"categories_nodes":[],"categories_segments":[],"categories_sizes":[],"default_left":[0,0,0,0,0,0,0,0,0,0,0,0,0,0,0,0,0,0,0,0,0,0,0,0,0,0,0,0,0,0,0,0,0,0,0,0,0,0,0,0,0,0,0,0,0,0,0],"id":10,"left_children":[1,3,5,7,9,11,13,15,17,19,21,23,25,27,29,-1,-1,-1,-1,31,33,35,37,39,41,43,45,-1,-1,-1,-1,-1,-1,-1,-1,-1,-1,-1,-1,-1,-1,-1,-1,-1,-1,-1,-1],"loss_changes":[5.417148E5,1.3641388E5,1.6127094E5,3.6271875E3,5.670496E3,1.3348664E4,1.5680375E4,4.75E2,7.481953E2,8.7858984E2,1.0081658E3,1.5186328E3,1.821332E3,1.2864922E3,7.7875E2,0E0,0E0,0E0,0E0,1.3505566E2,9.661426E1,1.1637695E2,8.853447E1,2.2622412E2,1.9425977E2,1.0225781E2,1.01265625E2,0E0,0E0,0E0,0E0,0E0,0E0,0E0,0E0,0E0,0E0,0E0,0E0,0E0,0E0,0E0,0E0,0E0,0E0,0E0,0E0],"parents":[2147483647,0,0,1,1,2,2,3,3,4,4,5,5,6,6,7,7,8,8,9,9,10,10,11,11,12,12,13,13,14,14,19,19,20,20,21,21,22,22,23,23,24,24,25,25,26,26],"right_children":[2,4,6,8,10,12,14,16,18,20,22,24,26,28,30,-1,-1,-1,-1,32,34,36,38,40,42,44,46,-1,-1,-1,-1,-1,-1,-1,-1,-1,-1,-1,-1,-1,-1,-1,-1,-1,-1,-1,-1],"split_conditions":[9.64434E1,7.23026E1,1.303464E2,5.506781E1,8.61049E1,1.09825096E2,1.554871E2,4.93321E1,6.36244E1,8.05755E1,9.110204E1,1.0351339E2,1.1705555E2,1.401694E2,1.6757776E2,-1.4377569E0,-1.2564188E0,-1.1139387E0,-7.792676E-1,7.65528E1,8.36721E1,8.874878E1,9.28117E1,9.982014E1,1.0616257E2,1.138752E2,1.21760155E2,1.1782223E0,1.520924E0,1.9627323E0,2.4536765E0,-6.295449E-1,-4.6901184E-1,-3.82841E-1,-2.9756653E-1,-2.2767054E-1,-1.5660965E-1,-9.470028E-2,-2.5538577E-2,8.481801E-2,1.921561E-1,2.877384E-1,3.8615125E-1,4.970766E-1,6.178764E-1,7.3752666E-1,9.0670407E-1],"split_indices":[0,0,0,15,15,15,0,14,14,0,15,15,15,0,15,0,0,0,0,0,0,15,0,15,15,0,15,0,0,0,0,0,0,0,0,0,0,0,0,0,0,0,0,0,0,0,0],"split_type":[0,0,0,0,0,0,0,0,0,0,0,0,0,0,0,0,0,0,0,0,0,0,0,0,0,0,0,0,0,0,0,0,0,0,0,0,0,0,0,0,0,0,0,0,0,0,0],"sum_hessian":[2.519E3,1.396E3,1.123E3,6.09E2,7.87E2,7.88E2,3.35E2,3.65E2,2.44E2,3.16E2,4.71E2,5.04E2,2.84E2,1.71E2,1.64E2,1.71E2,1.94E2,2.14E2,3E1,1.19E2,1.97E2,2.64E2,2.07E2,2.57E2,2.47E2,1.55E2,1.29E2,8.3E1,8.8E1,1.33E2,3.1E1,3.1E1,8.8E1,8.9E1,1.08E2,1.47E2,1.17E2,7E1,1.37E2,7E1,1.87E2,1.24E2,1.23E2,8.5E1,7E1,7E1,5.9E1],"tree_param":{"num_deleted":"0","num_feature":"34","num_nodes":"47","size_leaf_vector":"1"}},{"base_weights":[2.3939152E-1,-1.17078495E1,1.603835E1,-2.3597435E1,-4.2169695E0,8.205664E0,3.24768E1,-2.5934137E1,-2.1018974E1,-7.44737E0,-1.8700252E0,5.7303185E0,1.4162896E1,2.5840143E1,3.904149E1,-1.3702952E0,-1.2080388E0,-1.0904814E0,-8.626284E-1,-9.726573E0,-6.016154E0,-3.1231554E0,-1.8894908E-3,4.3479137E0,8.106783E0,1.2241219E1,8.283294E-1,1.1502138E0,1.4648346E0,2.3687491E0,1.8572053E0,-6.1195254E-1,-4.3665847E-1,-3.62903E-1,-2.7614215E-1,-1.9430757E-1,-1.1359786E-1,-2.9919455E-2,6.7867115E-2,1.7381695E-1,2.6421472E-1,3.0069208E-1,4.3330002E-1,5.0992864E-1,6.4026487E-1],"categories":[],"categories_nodes":[],"categories_segments":[],"categories_sizes":[],"default_left":[0,0,0,0,0,0,0,0,0,0,0,0,0,0,0,0,0,0,0,0,0,0,0,0,0,0,0,0,0,0,0,0,0,0,0,0,0,0,0,0,0,0,0,0,0],"id":11,"left_children":[1,3,5,7,9,11,13,15,17,19,21,23,25,27,29,-1,-1,-1,-1,31,33,35,37,39,41,43,-1,-1,-1,-1,-1,-1,-1,-1,-1,-1,-1,-1,-1,-1,-1,-1,-1,-1,-1],"loss_changes":[4.8132203E5,1.2921786E5,1.4110488E5,2.8302812E3,6.7479023E3,1.0902777E4,1.4407594E4,8.9578125E1,4.298125E2,1.1631719E3,1.2123285E3,1.6981113E3,8.0129297E2,1.0754297E3,1.01471875E3,0E0,0E0,0E0,0E0,2.4793066E2,1.0138281E2,1.9188794E2,1.7018959E2,2.5497168E2,1.7230469E2,1.1130859E1,0E0,0E0,0E0,0E0,0E0,0E0,0E0,0E0,0E0,0E0,0E0,0E0,0E0,0E0,0E0,0E0,0E0,0E0,0E0],"parents":[2147483647,0,0,1,1,2,2,3,3,4,4,5,5,6,6,7,7,8,8,9,9,10,10,11,11,12,12,13,13,14,14,19,19,20,20,21,21,22,22,23,23,24,24,25,25],"right_children":[2,4,6,8,10,12,14,16,18,20,22,24,26,28,30,-1,-1,-1,-1,32,34,36,38,40,42,44,-1,-1,-1,-1,-1,-1,-1,-1,-1,-1,-1,-1,-1,-1,-1,-1,-1,-1,-1],"split_conditions":[9.910638E1,6.7864555E1,1.303464E2,5.4214226E1,8.693399E1,1.1322295E2,1.5373866E2,4.9003994E1,6.036066E1,8.146856E1,9.273727E1,1.0616257E2,1.2089224E2,1.4253801E2,3E0,-1.3702952E0,-1.2080388E0,-1.0904814E0,-8.626284E-1,7.613923E1,8.333421E1,8.965007E1,9.61512E1,1.02535225E2,-1.6550237E-2,1.149601E2,8.283294E-1,1.1502138E0,1.4648346E0,2.3687491E0,1.8572053E0,-6.1195254E-1,-4.3665847E-1,-3.62903E-1,-2.7614215E-1,-1.9430757E-1,-1.1359786E-1,-2.9919455E-2,6.7867115E-2,1.7381695E-1,2.6421472E-1,3.0069208E-1,4.3330002E-1,5.0992864E-1,6.4026487E-1],"split_indices":[15,15,0,15,15,15,15,15,14,15,15,15,15,15,31,0,0,0,0,16,15,15,14,15,26,0,0,0,0,0,0,0,0,0,0,0,0,0,0,0,0,0,0,0,0],"split_type":[0,0,0,0,0,0,0,0,0,0,0,0,0,0,0,0,0,0,0,0,0,0,0,0,0,0,0,0,0,0,0,0,0,0,0,0,0,0,0,0,0,0,0,0,0],"sum_hessian":[2.548E3,1.451E3,1.097E3,5.6E2,8.91E2,7.44E2,3.53E2,2.89E2,2.71E2,3.74E2,5.17E2,5.27E2,2.17E2,1.78E2,1.75E2,1.5E2,1.39E2,2.2E2,5.1E1,1.42E2,2.32E2,3.09E2,2.08E2,3.35E2,1.92E2,1.24E2,9.3E1,1.02E2,7.6E1,2.8E1,1.47E2,3.7E1,1.05E2,6.2E1,1.7E2,1.61E2,1.48E2,1.45E2,6.3E1,1.76E2,1.59E2,4.3E1,1.49E2,3.1E1,9.3E1],"tree_param":{"num_deleted":"0","num_feature":"34","num_nodes":"45","size_leaf_vector":"1"}},{"base_weights":[5.4659963E-2,-1.2006445E1,1.467422E1,-2.2472706E1,-4.3326087E0,7.2558875E0,3.1102179E1,-2.4646656E1,-1.9806343E1,-7.706292E0,-2.4527097E0,4.686433E0,1.2605304E1,2.4726677E1,3.7445656E1,-1.3081858E0,-1.1549844E0,-1.033583E0,-8.1352043E-1,-9.586643E0,-6.407861E0,-3.6757789E0,-9.596992E-1,3.2700303E0,6.510402E0,1.0164918E1,1.5003626E1,1.1011152E0,1.4187325E0,3.5769806E1,2.3352218E0,-5.8241147E-1,-4.2560384E-1,-3.5192034E-1,-2.7401814E-1,-2.0894945E-1,-1.325592E-1,-8.148004E-2,-6.090246E-3,1.0687422E-1,1.9748515E-1,2.7978796E-1,3.677062E-1,4.4679663E-1,5.5087966E-1,6.8036574E-1,8.453863E-1,1.0467824E0,1.8062022E0],"categories":[],"categories_nodes":[],"categories_segments":[],"categories_sizes":[],"default_left":[0,0,0,0,0,0,0,0,0,0,0,0,0,0,0,0,0,0,0,0,0,0,0,0,0,0,0,0,0,0,0,0,0,0,0,0,0,0,0,0,0,0,0,0,0,0,0,0,0],"id":12,"left_children":[1,3,5,7,9,11,13,15,17,19,21,23,25,27,29,-1,-1,-1,-1,31,33,35,37,39,41,43,45,-1,-1,47,-1,-1,-1,-1,-1,-1,-1,-1,-1,-1,-1,-1,-1,-1,-1,-1,-1,-1,-1],"loss_changes":[4.5051828E5,1.1234291E5,1.405281E5,2.9389375E3,5.11091E3,1.0894027E4,1.3586844E4,1.4639062E2,4.8914844E2,6.425664E2,9.473838E2,1.3728096E3,1.3550039E3,1.1656094E3,1.0830312E3,0E0,0E0,0E0,0E0,1.5580957E2,6.1935547E1,1.3569531E2,1.3209474E2,2.264956E2,1.3890332E2,3.683008E1,1.0719531E2,0E0,0E0,5.25E1,0E0,0E0,0E0,0E0,0E0,0E0,0E0,0E0,0E0,0E0,0E0,0E0,0E0,0E0,0E0,0E0,0E0,0E0,0E0],"parents":[2147483647,0,0,1,1,2,2,3,3,4,4,5,5,6,6,7,7,8,8,9,9,10,10,11,11,12,12,13,13,14,14,19,19,20,20,21,21,22,22,23,23,24,24,25,25,26,26,29,29],"right_children":[2,4,6,8,10,12,14,16,18,20,22,24,26,28,30,-1,-1,-1,-1,32,34,36,38,40,42,44,46,-1,-1,48,-1,-1,-1,-1,-1,-1,-1,-1,-1,-1,-1,-1,-1,-1,-1,-1,-1,-1,-1],"split_conditions":[9.6731384E1,6.83219E1,1.303464E2,5.4214226E1,8.54531E1,1.112273E2,1.554871E2,4.8846107E1,6.0288578E1,8.05755E1,9.110204E1,1.0430426E2,1.1705555E2,1.437526E2,1.7615549E2,-1.3081858E0,-1.1549844E0,-1.033583E0,-8.1352043E-1,7.65528E1,8.36721E1,8.93458E1,9.358391E1,1.005563E2,1.06940025E2,8E0,1.2355904E2,1.1011152E0,1.4187325E0,-5.703428E-2,2.3352218E0,-5.8241147E-1,-4.2560384E-1,-3.5192034E-1,-2.7401814E-1,-2.0894945E-1,-1.325592E-1,-8.148004E-2,-6.090246E-3,1.0687422E-1,1.9748515E-1,2.7978796E-1,3.677062E-1,4.4679663E-1,5.5087966E-1,6.8036574E-1,8.453863E-1,1.0467824E0,1.8062022E0],"split_indices":[15,0,0,15,0,0,0,15,15,0,15,15,15,15,15,0,0,0,0,0,0,0,15,0,15,31,15,0,0,26,0,0,0,0,0,0,0,0,0,0,0,0,0,0,0,0,0,0,0],"split_type":[0,0,0,0,0,0,0,0,0,0,0,0,0,0,0,0,0,0,0,0,0,0,0,0,0,0,0,0,0,0,0,0,0,0,0,0,0,0,0,0,0,0,0,0,0,0,0,0,0],"sum_hessian":[2.553E3,1.399E3,1.154E3,5.91E2,8.08E2,7.96E2,3.58E2,3.21E2,2.7E2,2.88E2,5.2E2,5.39E2,2.57E2,1.81E2,1.77E2,1.54E2,1.67E2,2.13E2,5.7E1,1.15E2,1.73E2,2.85E2,2.35E2,3.05E2,2.34E2,1.3E2,1.27E2,1.08E2,7.3E1,1.54E2,2.3E1,3.6E1,7.9E1,9.9E1,7.4E1,1.89E2,9.6E1,1.3E2,1.05E2,1.16E2,1.89E2,1.16E2,1.18E2,5.8E1,7.2E1,7.8E1,4.9E1,5E0,1.49E2],"tree_param":{"num_deleted":"0","num_feature":"34","num_nodes":"49","size_leaf_vector":"1"}},{"base_weights":[6.543607E-2,-1.066018E1,1.4372813E1,-2.1390442E1,-3.818705E0,7.7879086E0,3.0674154E1,-1.225172E0,-1.9874832E1,-6.544843E0,-1.4535675E0,5.4140296E0,1.4185875E1,2.478431E1,3.5364754E1,-1.0359944E0,-8.284335E-1,-8.4105215E0,-4.8845434E0,-2.5838377E0,3.641968E-2,3.7826009E0,7.57564E0,6.106502E-1,8.5110426E-1,1.1286337E0,1.3774397E0,1.6926345E0,2.099125E0,-5.708885E-1,-3.7646893E-1,-2.8063962E-1,-2.2292097E-1,-1.663482E-1,-9.160166E-2,-2.933456E-2,6.50812E-2,1.306661E-1,2.192266E-1,3.1388015E-1,4.22089E-1],"categories":[],"categories_nodes":[],"categories_segments":[],"categories_sizes":[],"default_left":[0,0,0,0,0,0,0,0,0,0,0,0,0,0,0,0,0,0,0,0,0,0,0,0,0,0,0,0,0,0,0,0,0,0,0,0,0,0,0,0,0],"id":13,"left_children":[1,3,5,7,9,11,13,-1,15,17,19,21,23,25,27,-1,-1,29,31,33,35,37,39,-1,-1,-1,-1,-1,-1,-1,-1,-1,-1,-1,-1,-1,-1,-1,-1,-1,-1],"loss_changes":[3.9253912E5,1.0724239E5,1.1740497E5,2.1931719E3,5.753924E3,1.179825E4,7.8199688E3,0E0,7.37E2,1.2430879E3,8.087111E2,1.987375E3,9.698281E2,2.4744531E2,3.023125E2,0E0,0E0,4.262002E2,4.286035E1,1.4591028E2,1.6481458E2,2.1869678E2,2.2098242E2,0E0,0E0,0E0,0E0,0E0,0E0,0E0,0E0,0E0,0E0,0E0,0E0,0E0,0E0,0E0,0E0,0E0,0E0],"parents":[2147483647,0,0,1,1,2,2,3,3,4,4,5,5,6,6,8,8,9,9,10,10,11,11,12,12,13,13,14,14,17,17,18,18,19,19,20,20,21,21,22,22],"right_children":[2,4,6,8,10,12,14,-1,16,18,20,22,24,26,28,-1,-1,30,32,34,36,38,40,-1,-1,-1,-1,-1,-1,-1,-1,-1,-1,-1,-1,-1,-1,-1,-1,-1,-1],"split_conditions":[9.910638E1,6.786452E1,1.346816E2,5.121622E1,8.763783E1,1.149601E2,1.5528369E2,-1.225172E0,5.79804E1,8.293545E1,9.28117E1,1.059557E2,1.2355904E2,1.4457565E2,1.6757776E2,-1.0359944E0,-8.284335E-1,7.64206E1,-6.365941E-3,3.7186785E-4,9.601259E1,1.014507E2,1.08833115E2,6.106502E-1,8.5110426E-1,1.1286337E0,1.3774397E0,1.6926345E0,2.099125E0,-5.708885E-1,-3.7646893E-1,-2.8063962E-1,-2.2292097E-1,-1.663482E-1,-9.160166E-2,-2.933456E-2,6.50812E-2,1.306661E-1,2.192266E-1,3.1388015E-1,4.22089E-1],"split_indices":[15,14,0,14,15,0,15,0,0,15,0,0,15,15,15,0,0,4,26,25,15,0,15,0,0,0,0,0,0,0,0,0,0,0,0,0,0,0,0,0,0],"split_type":[0,0,0,0,0,0,0,0,0,0,0,0,0,0,0,0,0,0,0,0,0,0,0,0,0,0,0,0,0,0,0,0,0,0,0,0,0,0,0,0,0],"sum_hessian":[2.556E3,1.461E3,1.095E3,5.68E2,8.93E2,7.81E2,3.14E2,1.81E2,3.87E2,4.14E2,4.79E2,5.71E2,2.1E2,1.42E2,1.72E2,3.04E2,8.3E1,1.93E2,2.21E2,2.72E2,2.07E2,3.27E2,2.44E2,1.27E2,8.3E1,8.4E1,5.8E1,1.45E2,2.7E1,4.1E1,1.52E2,7.7E1,1.44E2,1.35E2,1.37E2,1.39E2,6.8E1,1.13E2,2.14E2,1.01E2,1.43E2],"tree_param":{"num_deleted":"0","num_feature":"34","num_nodes":"41","size_leaf_vector":"1"}},{"base_weights":[1.6415787E-1,-1.0231135E1,1.3554648E1,-2.0318104E1,-3.6674187E0,7.167037E0,2.8712955E1,-2.1780277E1,-1.7445974E1,-6.564085E0,-1.7456309E0,4.7745442E0,1.2629521E1,2.1549212E1,3.251067E1,-1.1714609E0,-1.0208515E0,-8.917602E-1,-6.134862E-1,-9.260969E0,-5.604917E0,-3.045309E0,-4.3403858E-1,3.2678857E0,6.561914E0,1.0818451E1,7.6394284E-1,9.49737E-1,1.1514033E0,2.9048761E1,1.8100189E0,-5.485684E-1,-4.1331658E-1,-3.196476E-1,-2.3083165E-1,-1.628638E-1,-7.782312E-2,-6.0656514E-2,1.5933612E-2,1.337646E-1,2.088054E-1,2.8298408E-1,3.823988E-1,4.9420077E-1,5.961715E-1,1.2282091E0,1.530372E0],"categories":[],"categories_nodes":[],"categories_segments":[],"categories_sizes":[],"default_left":[0,0,0,0,0,0,0,0,0,0,0,0,0,0,0,0,0,0,0,0,0,0,0,0,0,0,0,0,0,0,0,0,0,0,0,0,0,0,0,0,0,0,0,0,0,0,0],"id":14,"left_children":[1,3,5,7,9,11,13,15,17,19,21,23,25,27,29,-1,-1,-1,-1,31,33,35,37,39,41,43,-1,-1,-1,45,-1,-1,-1,-1,-1,-1,-1,-1,-1,-1,-1,-1,-1,-1,-1,-1,-1],"loss_changes":[3.5704288E5,9.552745E4,1.0833186E5,2.0056562E3,4.86421E3,1.0262434E4,8.326344E3,3.5571875E2,1.750586E2,8.4938574E2,8.9838464E2,1.4613926E3,9.8364453E2,4.15625E0,1.6881875E3,0E0,0E0,0E0,0E0,6.0493652E1,1.7187402E2,7.80791E1,1.5529376E2,1.5014282E2,2.0133301E2,3.0716797E1,0E0,0E0,0E0,5.3476562E1,0E0,0E0,0E0,0E0,0E0,0E0,0E0,0E0,0E0,0E0,0E0,0E0,0E0,0E0,0E0,0E0,0E0],"parents":[2147483647,0,0,1,1,2,2,3,3,4,4,5,5,6,6,7,7,8,8,9,9,10,10,11,11,12,12,13,13,14,14,19,19,20,20,21,21,22,22,23,23,24,24,25,25,29,29],"right_children":[2,4,6,8,10,12,14,16,18,20,22,24,26,28,30,-1,-1,-1,-1,32,34,36,38,40,42,44,-1,-1,-1,46,-1,-1,-1,-1,-1,-1,-1,-1,-1,-1,-1,-1,-1,-1,-1,-1,-1],"split_conditions":[9.829921E1,6.83078E1,1.3250978E2,5.5645233E1,8.6482506E1,1.1322295E2,1.4678287E2,4.9445698E1,2.013E3,7.969073E1,9.123695E1,1.0489569E2,1.2137251E2,1.3750803E2,1.608654E2,-1.1714609E0,-1.0208515E0,-8.917602E-1,-6.134862E-1,7.300198E1,8.423348E1,2.827417E-2,9.374879E1,1.023743E2,1.08833115E2,1.1705555E2,7.6394284E-1,9.49737E-1,1.1514033E0,-2.1066308E-2,1.8100189E0,-5.485684E-1,-4.1331658E-1,-3.196476E-1,-2.3083165E-1,-1.628638E-1,-7.782312E-2,-6.0656514E-2,1.5933612E-2,1.337646E-1,2.088054E-1,2.8298408E-1,3.823988E-1,4.9420077E-1,5.961715E-1,1.2282091E0,1.530372E0],"split_indices":[15,2,15,15,15,15,15,15,33,15,15,15,15,15,15,0,0,0,0,17,15,26,15,15,15,15,0,0,0,26,0,0,0,0,0,0,0,0,0,0,0,0,0,0,0,0,0],"split_type":[0,0,0,0,0,0,0,0,0,0,0,0,0,0,0,0,0,0,0,0,0,0,0,0,0,0,0,0,0,0,0,0,0,0,0,0,0,0,0,0,0,0,0,0,0,0,0],"sum_hessian":[2.563E3,1.443E3,1.12E3,5.68E2,8.75E2,7.89E2,3.31E2,3.72E2,1.96E2,3.48E2,5.27E2,5.5E2,2.39E2,1.17E2,2.14E2,1.61E2,2.11E2,1.8E2,1.6E1,8.9E1,2.59E2,2.64E2,2.63E2,3E2,2.5E2,1.45E2,9.4E1,4.8E1,6.9E1,1.15E2,9.9E1,2.9E1,6E1,1.41E2,1.18E2,2.3E2,3.4E1,1.29E2,1.34E2,1.84E2,1.16E2,1.4E2,1.1E2,8.4E1,6.1E1,3.4E1,8.1E1],"tree_param":{"num_deleted":"0","num_feature":"34","num_nodes":"47","size_leaf_vector":"1"}},{"base_weights":[5.7082277E-2,-9.641642E0,1.3238124E1,-1.9339348E1,-3.4234622E0,6.969429E0,2.7634699E1,-2.132607E1,-1.7264431E1,-6.0380373E0,-1.3507121E0,4.9421353E0,1.2507165E1,2.2267826E1,3.2739086E1,-1.1468084E0,-1.0117606E0,-8.964929E-1,-7.188043E-1,-8.511266E0,-5.04287E0,-2.4329975E0,1.08146735E-1,3.6036942E0,6.8347654E0,5.4368687E-1,7.440695E-1,9.911442E-1,1.2557606E0,1.5578253E0,2.0644214E0,-5.0787234E-1,-3.734368E-1,-3.073161E-1,-2.253524E-1,-1.396069E-1,-6.8244986E-2,-2.1291627E-2,6.648516E-2,1.3933374E-1,2.2140555E-1,2.923988E-1,3.937812E-1],"categories":[],"categories_nodes":[],"categories_segments":[],"categories_sizes":[],"default_left":[0,0,0,0,0,0,0,0,0,0,0,0,0,0,0,0,0,0,0,0,0,0,0,0,0,0,0,0,0,0,0,0,0,0,0,0,0,0,0,0,0,0,0],"id":15,"left_children":[1,3,5,7,9,11,13,15,17,19,21,23,25,27,29,-1,-1,-1,-1,31,33,35,37,39,41,-1,-1,-1,-1,-1,-1,-1,-1,-1,-1,-1,-1,-1,-1,-1,-1,-1,-1],"loss_changes":[3.2841925E5,8.917859E4,9.808372E4,2.010625E3,4.884788E3,8.468672E3,8.305703E3,4.2671875E1,2.9253906E2,9.3777344E2,7.978409E2,1.387835E3,6.2286914E2,6.393672E2,9.658594E2,0E0,0E0,0E0,0E0,1.1630322E2,1.4092236E2,1.0701648E2,1.4155034E2,2.085415E2,1.8880664E2,0E0,0E0,0E0,0E0,0E0,0E0,0E0,0E0,0E0,0E0,0E0,0E0,0E0,0E0,0E0,0E0,0E0,0E0],"parents":[2147483647,0,0,1,1,2,2,3,3,4,4,5,5,6,6,7,7,8,8,9,9,10,10,11,11,12,12,13,13,14,14,19,19,20,20,21,21,22,22,23,23,24,24],"right_children":[2,4,6,8,10,12,14,16,18,20,22,24,26,28,30,-1,-1,-1,-1,32,34,36,38,40,42,-1,-1,-1,-1,-1,-1,-1,-1,-1,-1,-1,-1,-1,-1,-1,-1,-1,-1],"split_conditions":[9.883248E1,6.80607E1,1.326031E2,5.3843136E1,8.72293E1,1.1507278E2,1.5648682E2,4.8087925E1,5.896344E1,8.015772E1,9.273727E1,1.0616257E2,1.21760155E2,1.4457565E2,1.7615549E2,-1.1468084E0,-1.0117606E0,-8.964929E-1,-7.188043E-1,7.64206E1,8.333421E1,1.4625169E-2,9.6731384E1,1.02535225E2,1.09825096E2,5.4368687E-1,7.440695E-1,9.911442E-1,1.2557606E0,1.5578253E0,2.0644214E0,-5.0787234E-1,-3.734368E-1,-3.073161E-1,-2.253524E-1,-1.396069E-1,-6.8244986E-2,-2.1291627E-2,6.648516E-2,1.3933374E-1,2.2140555E-1,2.923988E-1,3.937812E-1],"split_indices":[14,4,14,15,15,15,15,15,15,15,15,15,15,15,15,0,0,0,0,4,15,26,15,15,15,0,0,0,0,0,0,0,0,0,0,0,0,0,0,0,0,0,0],"split_type":[0,0,0,0,0,0,0,0,0,0,0,0,0,0,0,0,0,0,0,0,0,0,0,0,0,0,0,0,0,0,0,0,0,0,0,0,0,0,0,0,0,0,0],"sum_hessian":[2.567E3,1.479E3,1.088E3,5.77E2,9.02E2,7.59E2,3.29E2,2.9E2,2.87E2,3.98E2,5.04E2,5.57E2,2.02E2,1.63E2,1.66E2,1.09E2,1.81E2,2.29E2,5.8E1,1.12E2,2.86E2,2.89E2,2.15E2,3.28E2,2.29E2,1.23E2,7.9E1,9.2E1,7.1E1,1.44E2,2.2E1,4E1,7.2E1,9E1,1.96E2,2.15E2,7.4E1,1.5E2,6.5E1,1.67E2,1.61E2,1.21E2,1.08E2],"tree_param":{"num_deleted":"0","num_feature":"34","num_nodes":"43","size_leaf_vector":"1"}},{"base_weights":[-2.5006449E-2,-9.508865E0,1.1678412E1,-1.8306055E1,-3.5122142E0,6.3125925E0,2.5943216E1,-1.959677E1,-1.5511198E1,-6.1098E0,-1.8752738E0,4.2595162E0,1.1633271E1,2.1092413E1,3.0594704E1,-1.0640155E0,-9.208059E-1,-7.9670703E-1,-5.843604E-1,-8.765546E0,-5.398078E0,-2.8607516E0,-6.530904E-1,2.906084E0,6.148727E0,9.954285E0,7.11941E-1,9.194415E-1,1.162041E0,1.4606682E0,1.9226544E0,-4.9837312E-1,-3.742149E-1,-3.0874085E-1,-2.2700353E-1,-1.7351179E-1,-1.0755511E-1,-8.7762766E-2,-9.771655E-3,9.327094E-2,1.8112122E-1,2.5884786E-1,3.535052E-1,4.4311744E-1,5.474693E-1],"categories":[],"categories_nodes":[],"categories_segments":[],"categories_sizes":[],"default_left":[0,0,0,0,0,0,0,0,0,0,0,0,0,0,0,0,0,0,0,0,0,0,0,0,0,0,0,0,0,0,0,0,0,0,0,0,0,0,0,0,0,0,0,0,0],"id":16,"left_children":[1,3,5,7,9,11,13,15,17,19,21,23,25,27,29,-1,-1,-1,-1,31,33,35,37,39,41,43,-1,-1,-1,-1,-1,-1,-1,-1,-1,-1,-1,-1,-1,-1,-1,-1,-1,-1,-1],"loss_changes":[2.7970366E5,7.336665E4,8.617281E4,1.7270625E3,3.5127295E3,8.917264E3,6.299047E3,3.6340625E2,1.0698828E2,5.5611523E2,6.120419E2,1.5000342E3,8.5326953E2,4.6296094E2,5.524375E2,0E0,0E0,0E0,0E0,2.5291992E1,1.4083887E2,1.139436E2,1.1497264E2,2.5211743E2,1.8333008E2,5.5276367E1,0E0,0E0,0E0,0E0,0E0,0E0,0E0,0E0,0E0,0E0,0E0,0E0,0E0,0E0,0E0,0E0,0E0,0E0,0E0],"parents":[2147483647,0,0,1,1,2,2,3,3,4,4,5,5,6,6,7,7,8,8,9,9,10,10,11,11,12,12,13,13,14,14,19,19,20,20,21,21,22,22,23,23,24,24,25,25],"right_children":[2,4,6,8,10,12,14,16,18,20,22,24,26,28,30,-1,-1,-1,-1,32,34,36,38,40,42,44,-1,-1,-1,-1,-1,-1,-1,-1,-1,-1,-1,-1,-1,-1,-1,-1,-1,-1,-1],"split_conditions":[9.70469E1,6.83078E1,1.334647E2,5.599617E1,8.61049E1,1.138752E2,1.554871E2,4.92268E1,6.3614437E1,7.9072426E1,9.123695E1,1.054752E2,1.222488E2,1.420656E2,1.7615549E2,-1.0640155E0,-9.208059E-1,-7.9670703E-1,-5.843604E-1,7.316251E1,8.333421E1,8.874878E1,-5.1701665E-3,1.010702E2,1.089603E2,1.177466E2,7.11941E-1,9.194415E-1,1.162041E0,1.4606682E0,1.9226544E0,-4.9837312E-1,-3.742149E-1,-3.0874085E-1,-2.2700353E-1,-1.7351179E-1,-1.0755511E-1,-8.7762766E-2,-9.771655E-3,9.327094E-2,1.8112122E-1,2.5884786E-1,3.535052E-1,4.4311744E-1,5.474693E-1],"split_indices":[0,2,0,15,15,0,0,0,15,15,15,0,0,4,15,0,0,0,0,15,15,15,25,0,0,2,0,0,0,0,0,0,0,0,0,0,0,0,0,0,0,0,0,0,0],"split_type":[0,0,0,0,0,0,0,0,0,0,0,0,0,0,0,0,0,0,0,0,0,0,0,0,0,0,0,0,0,0,0,0,0,0,0,0,0,0,0,0,0,0,0,0,0],"sum_hessian":[2.518E3,1.391E3,1.127E3,5.63E2,8.28E2,8.2E2,3.07E2,3.81E2,1.82E2,3.19E2,5.09E2,5.93E2,2.27E2,1.53E2,1.54E2,1.5E2,2.31E2,1.61E2,2.1E1,6.5E1,2.54E2,2.81E2,2.28E2,3.47E2,2.46E2,1.41E2,8.6E1,7.2E1,8.1E1,1.35E2,1.9E1,3E1,3.5E1,1.3E2,1.24E2,1.49E2,1.32E2,6.6E1,1.62E2,1.43E2,2.04E2,1.23E2,1.23E2,7.2E1,6.9E1],"tree_param":{"num_deleted":"0","num_feature":"34","num_nodes":"45","size_leaf_vector":"1"}},{"base_weights":[1.8650295E-2,-9.080098E0,1.13437605E1,-1.7443703E1,-3.3090348E0,5.5759115E0,2.3835625E1,-9.8494303E-1,-1.586259E1,-5.9478307E0,-1.8173879E0,3.5426624E0,9.371879E0,1.7840263E1,2.8064457E1,-8.3663815E-1,-1.3821355E1,-8.013196E0,-5.0382066E0,-2.9330544E0,-6.776456E-1,2.4245136E0,4.737849E0,7.808993E0,1.1365089E1,7.674471E-1,9.6214783E-1,2.48151E1,1.5678772E0,-7.1827793E-1,-5.43898E-1,-4.8248205E-1,-3.5162398E-1,-3.0192456E-1,-2.2804752E-1,-1.7103769E-1,-1.12467326E-1,-5.9735544E-2,1.615291E-2,6.8476014E-2,1.4306891E-1,1.5970561E-1,2.5966102E-1,3.4451085E-1,4.2857414E-1,5.262726E-1,6.4678997E-1,7.944931E-1,1.2681867E0],"categories":[],"categories_nodes":[],"categories_segments":[],"categories_sizes":[],"default_left":[0,0,0,0,0,0,0,0,0,0,0,0,0,0,0,0,0,0,0,0,0,0,0,0,0,0,0,0,0,0,0,0,0,0,0,0,0,0,0,0,0,0,0,0,0,0,0,0,0],"id":17,"left_children":[1,3,5,7,9,11,13,-1,15,17,19,21,23,25,27,-1,29,31,33,35,37,39,41,43,45,-1,-1,47,-1,-1,-1,-1,-1,-1,-1,-1,-1,-1,-1,-1,-1,-1,-1,-1,-1,-1,-1,-1,-1],"loss_changes":[2.6090844E5,6.770692E4,8.113789E4,1.7270781E3,3.263293E3,5.931635E3,8.520547E3,0E0,3.7314062E2,5.219346E2,6.7539966E2,6.6267773E2,7.473125E2,2.2536719E2,1.4312188E3,0E0,1.4203125E1,7.491113E1,7.212793E1,8.1434814E1,1.3759183E2,1.16871826E2,1.5339551E2,4.7280273E1,1.4483398E1,0E0,0E0,1.2659375E2,0E0,0E0,0E0,0E0,0E0,0E0,0E0,0E0,0E0,0E0,0E0,0E0,0E0,0E0,0E0,0E0,0E0,0E0,0E0,0E0,0E0],"parents":[2147483647,0,0,1,1,2,2,3,3,4,4,5,5,6,6,8,8,9,9,10,10,11,11,12,12,13,13,14,14,16,16,17,17,18,18,19,19,20,20,21,21,22,22,23,23,24,24,27,27],"right_children":[2,4,6,8,10,12,14,-1,16,18,20,22,24,26,28,-1,30,32,34,36,38,40,42,44,46,-1,-1,48,-1,-1,-1,-1,-1,-1,-1,-1,-1,-1,-1,-1,-1,-1,-1,-1,-1,-1,-1,-1,-1],"split_conditions":[9.74325E1,6.83078E1,1.2777246E2,5.3025063E1,8.5552E1,1.103355E2,1.4678287E2,-9.8494303E-1,5.76589E1,7.969073E1,9.05528E1,1.0370729E2,1.177466E2,1.352984E2,1.608654E2,-8.3663815E-1,6.283885E1,7.316251E1,-3.9808443E-3,6.3169333E-3,9.40781E1,-1.1266735E-2,-5.870824E-3,8E0,1.756E5,7.674471E-1,9.6214783E-1,-2.8531676E-2,1.5678772E0,-7.1827793E-1,-5.43898E-1,-4.8248205E-1,-3.5162398E-1,-3.0192456E-1,-2.2804752E-1,-1.7103769E-1,-1.12467326E-1,-5.9735544E-2,1.615291E-2,6.8476014E-2,1.4306891E-1,1.5970561E-1,2.5966102E-1,3.4451085E-1,4.2857414E-1,5.262726E-1,6.4678997E-1,7.944931E-1,1.2681867E0],"split_indices":[14,2,15,15,0,0,15,0,0,15,15,15,2,0,15,0,16,15,25,26,0,26,25,31,13,0,0,25,0,0,0,0,0,0,0,0,0,0,0,0,0,0,0,0,0,0,0,0,0],"split_type":[0,0,0,0,0,0,0,0,0,0,0,0,0,0,0,0,0,0,0,0,0,0,0,0,0,0,0,0,0,0,0,0,0,0,0,0,0,0,0,0,0,0,0,0,0,0,0,0,0],"sum_hessian":[2.53E3,1.403E3,1.127E3,5.72E2,8.31E2,7.72E2,3.55E2,2.31E2,3.41E2,2.99E2,5.32E2,5.04E2,2.68E2,1.49E2,2.06E2,2.34E2,1.07E2,8.9E1,2.1E2,2.68E2,2.64E2,2.62E2,2.42E2,1.53E2,1.15E2,5.8E1,9.1E1,1.08E2,9.8E1,8.7E1,2E1,3E1,5.9E1,6.4E1,1.46E2,1.54E2,1.14E2,1.74E2,9E1,7.8E1,1.84E2,5.7E1,1.85E2,7.4E1,7.9E1,8E1,3.5E1,8E0,1E2],"tree_param":{"num_deleted":"0","num_feature":"34","num_nodes":"49","size_leaf_vector":"1"}},{"base_weights":[4.205593E-2,-7.9960914E0,1.1856103E1,-1.6388523E1,-2.51915E0,6.5047317E0,2.4112875E1,-1.757777E1,-1.3273775E1,-4.813573E0,-7.683292E-1,4.4962773E0,1.1133453E1,2.0324535E1,2.897667E1,-9.54027E-1,-8.2081616E-1,-7.0769393E-1,-5.017545E-1,-6.2227488E0,-3.8517845E0,-1.6885537E0,7.687537E-1,3.4364712E0,6.124134E0,4.6549496E-1,6.5297025E-1,8.819399E-1,1.1337571E0,1.3665019E0,1.7759018E0,-3.5704216E-1,-2.7873206E-1,-2.367823E-1,-1.7822148E-1,-1.7830084E-1,-7.408197E-2,-8.206511E-3,6.578355E-2,1.10559486E-1,1.9157366E-1,2.1062005E-1,3.3194992E-1],"categories":[],"categories_nodes":[],"categories_segments":[],"categories_sizes":[],"default_left":[0,0,0,0,0,0,0,0,0,0,0,0,0,0,0,0,0,0,0,0,0,0,0,0,0,0,0,0,0,0,0,0,0,0,0,0,0,0,0,0,0,0,0],"id":18,"left_children":[1,3,5,7,9,11,13,15,17,19,21,23,25,27,29,-1,-1,-1,-1,31,33,35,37,39,41,-1,-1,-1,-1,-1,-1,-1,-1,-1,-1,-1,-1,-1,-1,-1,-1,-1,-1],"loss_changes":[2.4415023E5,7.028304E4,6.811983E4,2.0009375E3,3.7196162E3,6.6976934E3,5.228672E3,4.4071875E2,3.4295898E2,5.1851074E2,7.4681116E2,8.5440625E2,6.453262E2,7.386797E2,4.878828E2,0E0,0E0,0E0,0E0,5.471924E1,4.3499756E1,1.2240814E2,1.0135274E2,1.4095972E2,1.6682129E2,0E0,0E0,0E0,0E0,0E0,0E0,0E0,0E0,0E0,0E0,0E0,0E0,0E0,0E0,0E0,0E0,0E0,0E0],"parents":[2147483647,0,0,1,1,2,2,3,3,4,4,5,5,6,6,7,7,8,8,9,9,10,10,11,11,12,12,13,13,14,14,19,19,20,20,21,21,22,22,23,23,24,24],"right_children":[2,4,6,8,10,12,14,16,18,20,22,24,26,28,30,-1,-1,-1,-1,32,34,36,38,40,42,-1,-1,-1,-1,-1,-1,-1,-1,-1,-1,-1,-1,-1,-1,-1,-1,-1,-1],"split_conditions":[1.005563E2,7.257409E1,1.346816E2,5.66325E1,8.78502E1,1.149601E2,1.591819E2,5.012446E1,6.40517E1,8.28497E1,9.405138E1,1.071016E2,1.222488E2,1.454118E2,1.748936E2,-9.54027E-1,-8.2081616E-1,-7.0769393E-1,-5.017545E-1,-3.4589688E-3,-7.540543E-3,-1.4087956E-2,9.61512E1,-5.1701665E-3,-8.745452E-3,4.6549496E-1,6.5297025E-1,8.819399E-1,1.1337571E0,1.3665019E0,1.7759018E0,-3.5704216E-1,-2.7873206E-1,-2.367823E-1,-1.7822148E-1,-1.7830084E-1,-7.408197E-2,-8.206511E-3,6.578355E-2,1.10559486E-1,1.9157366E-1,2.1062005E-1,3.3194992E-1],"split_indices":[0,17,0,0,14,0,0,14,0,0,14,0,0,0,0,0,0,0,0,25,25,25,14,25,25,0,0,0,0,0,0,0,0,0,0,0,0,0,0,0,0,0,0],"split_type":[0,0,0,0,0,0,0,0,0,0,0,0,0,0,0,0,0,0,0,0,0,0,0,0,0,0,0,0,0,0,0,0,0,0,0,0,0,0,0,0,0,0,0],"sum_hessian":[2.569E3,1.529E3,1.04E3,6.03E2,9.26E2,7.25E2,3.15E2,4.33E2,1.7E2,4E2,5.26E2,5.07E2,2.18E2,1.8E2,1.35E2,1.82E2,2.51E2,1.31E2,3.9E1,1.6E2,2.4E2,3.29E2,1.97E2,3.09E2,1.98E2,1.15E2,1.03E2,8.8E1,9.2E1,1.12E2,2.3E1,6.2E1,9.8E1,5.5E1,1.85E2,3.1E1,2.98E2,7.3E1,1.24E2,7.7E1,2.32E2,4.4E1,1.54E2],"tree_param":{"num_deleted":"0","num_feature":"34","num_nodes":"43","size_leaf_vector":"1"}},{"base_weights":[1.5001923E-1,-7.7569046E0,1.0927469E1,-1.579892E1,-2.707472E0,5.831984E0,2.2494312E1,-1.6882965E1,-1.3456046E1,-4.825673E0,-1.0056311E0,3.7553723E0,9.769042E0,1.8418472E1,2.6581638E1,-9.3596375E-1,-8.0514395E-1,-6.8755287E-1,-4.9829474E-1,-6.729213E0,-3.9011827E0,-1.7331105E0,3.9960918E-1,2.714557E0,4.9880686E0,8.460782E0,6.312481E-1,8.275747E-1,1.0492172E0,1.2643937E0,1.6830343E0,-4.1648063E-1,-2.9621312E-1,-2.5104243E-1,-1.773956E-1,-1.1297677E-1,-5.744025E-2,-1.1509567E-2,4.885481E-2,9.433396E-2,1.5564297E-1,2.1208416E-1,3.0461186E-1,3.7233242E-1,4.7775254E-1],"categories":[],"categories_nodes":[],"categories_segments":[],"categories_sizes":[],"default_left":[0,0,0,0,0,0,0,0,0,0,0,0,0,0,0,0,0,0,0,0,0,0,0,0,0,0,0,0,0,0,0,0,0,0,0,0,0,0,0,0,0,0,0,0,0],"id":19,"left_children":[1,3,5,7,9,11,13,15,17,19,21,23,25,27,29,-1,-1,-1,-1,31,33,35,37,39,41,43,-1,-1,-1,-1,-1,-1,-1,-1,-1,-1,-1,-1,-1,-1,-1,-1,-1,-1,-1],"loss_changes":[2.1687581E5,5.956735E4,6.3342938E4,1.2072969E3,3.2497358E3,6.08559E3,4.9868125E3,2.4372656E2,5.0039062E1,6.8012695E2,5.140122E2,6.169302E2,8.550332E2,4.5371484E2,6.265781E2,0E0,0E0,0E0,0E0,1.1669922E2,8.931348E1,9.887665E1,6.2856293E1,8.232861E1,1.5773193E2,1.26899414E2,0E0,0E0,0E0,0E0,0E0,0E0,0E0,0E0,0E0,0E0,0E0,0E0,0E0,0E0,0E0,0E0,0E0,0E0,0E0],"parents":[2147483647,0,0,1,1,2,2,3,3,4,4,5,5,6,6,7,7,8,8,9,9,10,10,11,11,12,12,13,13,14,14,19,19,20,20,21,21,22,22,23,23,24,24,25,25],"right_children":[2,4,6,8,10,12,14,16,18,20,22,24,26,28,30,-1,-1,-1,-1,32,34,36,38,40,42,44,-1,-1,-1,-1,-1,-1,-1,-1,-1,-1,-1,-1,-1,-1,-1,-1,-1,-1,-1],"split_conditions":[9.92351E1,6.83078E1,1.334647E2,5.57991E1,8.743438E1,1.125034E2,1.560249E2,4.8087925E1,6.283885E1,8.10788E1,9.358391E1,1.0489569E2,1.2355904E2,1.457458E2,1.748936E2,-9.3596375E-1,-8.0514395E-1,-6.8755287E-1,-4.9829474E-1,7.65528E1,-7.540543E-3,9.05528E1,9.57628E1,-4.168407E-3,1.089603E2,1.1705555E2,6.312481E-1,8.275747E-1,1.0492172E0,1.2643937E0,1.6830343E0,-4.1648063E-1,-2.9621312E-1,-2.5104243E-1,-1.773956E-1,-1.1297677E-1,-5.744025E-2,-1.1509567E-2,4.885481E-2,9.433396E-2,1.5564297E-1,2.1208416E-1,3.0461186E-1,3.7233242E-1,4.7775254E-1],"split_indices":[0,2,0,0,15,0,0,15,16,0,15,15,15,15,0,0,0,0,0,0,25,15,0,25,0,15,0,0,0,0,0,0,0,0,0,0,0,0,0,0,0,0,0,0,0],"split_type":[0,0,0,0,0,0,0,0,0,0,0,0,0,0,0,0,0,0,0,0,0,0,0,0,0,0,0,0,0,0,0,0,0,0,0,0,0,0,0,0,0,0,0,0,0],"sum_hessian":[2.543E3,1.467E3,1.076E3,5.65E2,9.02E2,7.48E2,3.28E2,3.82E2,1.83E2,4.01E2,5.01E2,4.91E2,2.57E2,1.67E2,1.61E2,1.07E2,2.75E2,1.66E2,1.7E1,1.29E2,2.72E2,3.3E2,1.71E2,2.68E2,2.23E2,1.79E2,7.8E1,1.01E2,6.6E1,1.4E2,2.1E1,4E1,8.9E1,6.2E1,2.1E2,1.72E2,1.58E2,8.2E1,8.9E1,8.9E1,1.79E2,1.36E2,8.7E1,9.7E1,8.2E1],"tree_param":{"num_deleted":"0","num_feature":"34","num_nodes":"45","size_leaf_vector":"1"}},{"base_weights":[-4.580274E-2,-7.537239E0,1.024359E1,-1.4998883E1,-2.6678643E0,5.415924E0,2.1727947E1,-1.642251E1,-1.3265097E1,-4.5568485E0,-8.5909903E-1,3.57893E0,9.512009E0,1.8366795E1,2.6172285E1,-8.932316E-1,-7.8064454E-1,-6.9223535E-1,-5.595323E-1,-6.559993E0,-3.7382085E0,-1.7375183E0,1.4077048E-1,2.6631713E0,5.1365814E0,8.176817E0,6.098233E-1,8.041892E-1,2.0498709E1,1.2461709E0,1.588013E0,-4.16227E-1,-2.9216385E-1,-2.3635219E-1,-1.6596797E-1,-1.18957005E-1,-5.404787E-2,-1.9132307E-2,4.0003445E-2,9.6841E-2,1.6014747E-1,1.745417E-1,2.7572253E-1,3.6172792E-1,4.5608765E-1,6.909004E-1,1.0527718E0],"categories":[],"categories_nodes":[],"categories_segments":[],"categories_sizes":[],"default_left":[0,0,0,0,0,0,0,0,0,0,0,0,0,0,0,0,0,0,0,0,0,0,0,0,0,0,0,0,0,0,0,0,0,0,0,0,0,0,0,0,0,0,0,0,0,0,0],"id":20,"left_children":[1,3,5,7,9,11,13,15,17,19,21,23,25,27,29,-1,-1,-1,-1,31,33,35,37,39,41,43,-1,-1,45,-1,-1,-1,-1,-1,-1,-1,-1,-1,-1,-1,-1,-1,-1,-1,-1,-1,-1],"loss_changes":[1.974077E5,5.3804523E4,5.9702227E4,1.223125E3,3.063767E3,5.6907793E3,4.2800938E3,8.7859375E1,1.660039E2,6.943428E2,4.0442444E2,7.372705E2,7.4053906E2,5.670703E2,1.44875E2,0E0,0E0,0E0,0E0,1.0929053E2,1.135542E2,1.0029181E2,7.488683E1,1.242334E2,1.00493164E2,7.483203E1,0E0,0E0,4.775E1,0E0,0E0,0E0,0E0,0E0,0E0,0E0,0E0,0E0,0E0,0E0,0E0,0E0,0E0,0E0,0E0,0E0,0E0],"parents":[2147483647,0,0,1,1,2,2,3,3,4,4,5,5,6,6,7,7,8,8,9,9,10,10,11,11,12,12,13,13,14,14,19,19,20,20,21,21,22,22,23,23,24,24,25,25,28,28],"right_children":[2,4,6,8,10,12,14,16,18,20,22,24,26,28,30,-1,-1,-1,-1,32,34,36,38,40,42,44,-1,-1,46,-1,-1,-1,-1,-1,-1,-1,-1,-1,-1,-1,-1,-1,-1,-1,-1,-1,-1],"split_conditions":[9.910638E1,6.83078E1,1.334647E2,5.45048E1,8.8172554E1,1.130346E2,1.5913177E2,4.8087925E1,5.92296E1,8.05755E1,9.28117E1,1.0616257E2,1.2355904E2,1.457458E2,1.748936E2,-8.932316E-1,-7.8064454E-1,-6.9223535E-1,-5.595323E-1,7.28743E1,-5.961875E-3,7.309248E-5,9.51538E1,1.019686E2,-8.922749E-3,1.1705555E2,6.098233E-1,8.041892E-1,-2.7069883E-2,1.2461709E0,1.588013E0,-4.16227E-1,-2.9216385E-1,-2.3635219E-1,-1.6596797E-1,-1.18957005E-1,-5.404787E-2,-1.9132307E-2,4.0003445E-2,9.6841E-2,1.6014747E-1,1.745417E-1,2.7572253E-1,3.6172792E-1,4.5608765E-1,6.909004E-1,1.0527718E0],"split_indices":[15,2,0,0,15,0,15,15,0,0,0,15,15,15,0,0,0,0,0,18,25,25,15,0,25,15,0,0,25,0,0,0,0,0,0,0,0,0,0,0,0,0,0,0,0,0,0],"split_type":[0,0,0,0,0,0,0,0,0,0,0,0,0,0,0,0,0,0,0,0,0,0,0,0,0,0,0,0,0,0,0,0,0,0,0,0,0,0,0,0,0,0,0,0,0,0,0],"sum_hessian":[2.559E3,1.481E3,1.078E3,5.84E2,8.97E2,7.6E2,3.18E2,3.16E2,2.68E2,4.38E2,4.59E2,5.26E2,2.34E2,1.84E2,1.34E2,1.06E2,2.1E2,2.05E2,6.3E1,1.25E2,3.13E2,2.44E2,2.15E2,3.33E2,1.93E2,1.59E2,7.5E1,9.3E1,9.1E1,1.14E2,2E1,3.3E1,9.2E1,9E1,2.23E2,1.22E2,1.22E2,1.2E2,9.5E1,1.44E2,1.89E2,3.8E1,1.55E2,8.4E1,7.5E1,9E0,8.2E1],"tree_param":{"num_deleted":"0","num_feature":"34","num_nodes":"47","size_leaf_vector":"1"}},{"base_weights":[-2.4400176E-2,-7.0671244E0,9.915449E0,-1.420189E1,-2.329158E0,5.4015236E0,2.0745684E1,-1.5743632E1,-1.2648488E1,-4.470476E0,-8.89114E-1,3.5876508E0,9.257658E0,1.755649E1,2.4802711E1,-8.3166975E-1,-7.300918E-1,-6.569349E-1,-5.052446E-1,-6.10366E0,-3.6585987E0,-1.7665497E0,1.9548145E-1,2.8675206E0,5.1981535E0,7.8208184E0,1.1300474E1,7.6141506E-1,1.8902016E1,1.5712035E0,1.1717314E0,-3.6113745E-1,-2.6567495E-1,-2.290293E-1,-1.6405104E-1,-1.0472222E-1,-5.143088E-3,-1.5108061E-2,5.174419E-2,1.11943915E-1,1.7414746E-1,1.7287163E-1,2.845362E-1,3.6822328E-1,4.5578995E-1,4.2887068E-1,5.888304E-1,7.785982E-1,9.96303E-1],"categories":[],"categories_nodes":[],"categories_segments":[],"categories_sizes":[],"default_left":[0,0,0,0,0,0,0,0,0,0,0,0,0,0,0,0,0,0,0,0,0,0,0,0,0,0,0,0,0,0,0,0,0,0,0,0,0,0,0,0,0,0,0,0,0,0,0,0,0],"id":21,"left_children":[1,3,5,7,9,11,13,15,17,19,21,23,25,27,29,-1,-1,-1,-1,31,33,35,37,39,41,43,45,-1,47,-1,-1,-1,-1,-1,-1,-1,-1,-1,-1,-1,-1,-1,-1,-1,-1,-1,-1,-1,-1],"loss_changes":[1.7808898E5,5.0299836E4,5.1460984E4,1.220625E3,2.7583877E3,5.1834277E3,3.5712969E3,5.2679688E1,2.4022656E2,4.540332E2,5.1154532E2,5.7461084E2,6.0828516E2,2.6321875E2,4.719453E2,0E0,0E0,0E0,0E0,6.471094E1,6.8778564E1,1.615827E2,1.0105707E2,1.2858691E2,1.13168945E2,1.5728516E1,2.1418945E1,0E0,5.445703E1,0E0,0E0,0E0,0E0,0E0,0E0,0E0,0E0,0E0,0E0,0E0,0E0,0E0,0E0,0E0,0E0,0E0,0E0,0E0,0E0],"parents":[2147483647,0,0,1,1,2,2,3,3,4,4,5,5,6,6,7,7,8,8,9,9,10,10,11,11,12,12,13,13,14,14,19,19,20,20,21,21,22,22,23,23,24,24,25,25,26,26,28,28],"right_children":[2,4,6,8,10,12,14,16,18,20,22,24,26,28,30,-1,-1,-1,-1,32,34,36,38,40,42,44,46,-1,48,-1,-1,-1,-1,-1,-1,-1,-1,-1,-1,-1,-1,-1,-1,-1,-1,-1,-1,-1,-1],"split_conditions":[9.987896E1,6.36777E1,1.346816E2,5.37976E1,8.68471E1,1.138752E2,1.591819E2,4.92268E1,6.04494E1,8.05755E1,9.28117E1,1.0743518E2,1.2183364E2,1.429739E2,2E0,-8.3166975E-1,-7.300918E-1,-6.569349E-1,-5.052446E-1,7.76027E1,-4.0450003E-3,1.0408309E-2,9.666122E1,1.032665E2,-1.0429094E-2,1.1E1,1.182132E2,7.6141506E-1,-7.0318985E-3,1.5712035E0,1.1717314E0,-3.6113745E-1,-2.6567495E-1,-2.290293E-1,-1.6405104E-1,-1.0472222E-1,-5.143088E-3,-1.5108061E-2,5.174419E-2,1.11943915E-1,1.7414746E-1,1.7287163E-1,2.845362E-1,3.6822328E-1,4.5578995E-1,4.2887068E-1,5.888304E-1,7.785982E-1,9.96303E-1],"split_indices":[14,12,0,0,0,0,0,2,2,0,0,14,14,0,31,0,0,0,0,0,25,25,14,0,25,31,10,0,25,0,0,0,0,0,0,0,0,0,0,0,0,0,0,0,0,0,0,0,0],"split_type":[0,0,0,0,0,0,0,0,0,0,0,0,0,0,0,0,0,0,0,0,0,0,0,0,0,0,0,0,0,0,0,0,0,0,0,0,0,0,0,0,0,0,0,0,0,0,0,0,0],"sum_hessian":[2.542E3,1.488E3,1.054E3,5.93E2,8.95E2,7.45E2,3.09E2,2.93E2,3E2,3.59E2,5.36E2,5.08E2,2.37E2,1.76E2,1.33E2,1.57E2,1.36E2,2.48E2,5.2E1,1.17E2,2.42E2,2.96E2,2.4E2,3.53E2,1.55E2,1.42E2,9.5E1,6.9E1,1.07E2,1.9E1,1.14E2,4.5E1,7.2E1,6.7E1,1.75E2,2.47E2,4.9E1,1.51E2,8.9E1,1.77E2,1.76E2,3.6E1,1.19E2,1.1E2,3.2E1,1.7E1,7.8E1,2.9E1,7.8E1],"tree_param":{"num_deleted":"0","num_feature":"34","num_nodes":"49","size_leaf_vector":"1"}},{"base_weights":[5.5955455E-2,-6.407136E0,9.879383E0,-1.3411091E1,-1.9778147E0,5.1526823E0,1.9302996E1,-1.4407241E1,-1.0900079E1,-3.6925128E0,-3.1278613E-1,3.707697E0,8.730262E0,1.6091522E1,2.3660465E1,-7.76596E-1,-6.7096895E-1,-5.7835335E-1,-4.0281302E-1,-4.9822493E0,-2.7776508E0,-9.953063E-1,1.0033128E0,2.6132033E0,4.741976E0,7.4286065E0,1.0280245E1,6.805087E-1,1.7906849E1,1.5335312E0,1.1186981E0,-2.699246E-1,-1.8859325E-1,-1.4322819E-1,-2.229683E-2,-1.4893408E-1,-4.065406E-2,3.8750183E-2,1.1445723E-1,8.411625E-2,1.4793216E-1,1.6968893E-1,2.5614783E-1,2.0461725E-1,3.7749293E-1,2.88308E-1,5.244524E-1,7.156046E-1,9.451294E-1],"categories":[],"categories_nodes":[],"categories_segments":[],"categories_sizes":[],"default_left":[0,0,0,0,0,0,0,0,0,0,0,0,0,0,0,0,0,0,0,0,0,0,0,0,0,0,0,0,0,0,0,0,0,0,0,0,0,0,0,0,0,0,0,0,0,0,0,0,0],"id":22,"left_children":[1,3,5,7,9,11,13,15,17,19,21,23,25,27,29,-1,-1,-1,-1,31,33,35,37,39,41,43,45,-1,47,-1,-1,-1,-1,-1,-1,-1,-1,-1,-1,-1,-1,-1,-1,-1,-1,-1,-1,-1,-1],"loss_changes":[1.6062912E5,4.7312676E4,4.461886E4,1.3187266E3,2.6707444E3,3.4299844E3,4.30325E3,2.553125E2,2.3109766E2,5.293325E2,4.285715E2,5.2910645E2,3.092295E2,6.360078E2,5.710781E2,0E0,0E0,0E0,0E0,7.444531E1,5.351416E1,1.1068503E2,4.577092E1,7.012561E1,1.0760303E2,1.1628418E1,1.8009766E1,0E0,1.1988281E2,0E0,0E0,0E0,0E0,0E0,0E0,0E0,0E0,0E0,0E0,0E0,0E0,0E0,0E0,0E0,0E0,0E0,0E0,0E0,0E0],"parents":[2147483647,0,0,1,1,2,2,3,3,4,4,5,5,6,6,7,7,8,8,9,9,10,10,11,11,12,12,13,13,14,14,19,19,20,20,21,21,22,22,23,23,24,24,25,25,26,26,28,28],"right_children":[2,4,6,8,10,12,14,16,18,20,22,24,26,28,30,-1,-1,-1,-1,32,34,36,38,40,42,44,46,-1,48,-1,-1,-1,-1,-1,-1,-1,-1,-1,-1,-1,-1,-1,-1,-1,-1,-1,-1,-1,-1],"split_conditions":[1.0057929E2,7.01711E1,1.326031E2,5.6430027E1,8.902275E1,1.1507278E2,1.5913177E2,5.108009E1,6.3614437E1,8.361743E1,9.484543E1,1.0575356E2,1.2137251E2,1.437526E2,2E0,-7.76596E-1,-6.7096895E-1,-5.7835335E-1,-4.0281302E-1,1.7058399E-2,2.4450209E-2,-1.4087956E-2,1.23783685E-2,-9.552746E-3,-1.6550237E-2,-2.7993983E-2,1.018E5,6.805087E-1,-7.0318985E-3,1.5335312E0,1.1186981E0,-2.699246E-1,-1.8859325E-1,-1.4322819E-1,-2.229683E-2,-1.4893408E-1,-4.065406E-2,3.8750183E-2,1.1445723E-1,8.411625E-2,1.4793216E-1,1.6968893E-1,2.5614783E-1,2.0461725E-1,3.7749293E-1,2.88308E-1,5.244524E-1,7.156046E-1,9.451294E-1],"split_indices":[15,10,14,15,15,15,15,15,15,15,15,15,15,15,31,0,0,0,0,26,25,25,25,26,26,27,9,0,25,0,0,0,0,0,0,0,0,0,0,0,0,0,0,0,0,0,0,0,0],"split_type":[0,0,0,0,0,0,0,0,0,0,0,0,0,0,0,0,0,0,0,0,0,0,0,0,0,0,0,0,0,0,0,0,0,0,0,0,0,0,0,0,0,0,0,0,0,0,0,0,0],"sum_hessian":[2.528E3,1.525E3,1.003E3,5.9E2,9.35E2,6.69E2,3.34E2,4.19E2,1.71E2,4.6E2,4.75E2,4.78E2,1.91E2,1.95E2,1.39E2,1.89E2,2.3E2,1.36E2,3.5E1,1.89E2,2.71E2,3.13E2,1.62E2,2.34E2,2.44E2,1.07E2,8.4E1,8.6E1,1.09E2,1.8E1,1.21E2,1.38E2,5.1E1,2.61E2,1E1,2.5E1,2.88E2,1.39E2,2.3E1,6.5E1,1.69E2,5.6E1,1.88E2,5E0,1.02E2,5E0,7.9E1,2.7E1,8.2E1],"tree_param":{"num_deleted":"0","num_feature":"34","num_nodes":"49","size_leaf_vector":"1"}},{"base_weights":[-6.372534E-2,-6.8012514E0,8.191021E0,-1.2886092E1,-2.4727836E0,4.0611653E0,1.7345448E1,-1.3789457E1,-1.081731E1,-4.665971E0,-1.4318035E0,2.5179768E0,6.9020796E0,1.3841809E1,2.1686892E1,-7.510459E-1,-6.473661E-1,-5.5572313E-1,-3.9099705E-1,-5.9921627E0,-3.9221315E0,-2.348818E0,-6.8568057E-1,1.6742864E0,3.4220655E0,5.609129E0,8.163486E0,1.1649949E1,1.5365517E1,9.8789805E-1,1.2486634E0,-3.4529766E-1,-2.5927708E-1,-2.0904203E-1,-1.4892475E-1,-1.2391012E-1,-6.2019555E-3,-7.627435E-2,-1.5612676E-2,3.9493643E-2,1.0200311E-1,6.127588E-2,1.7984979E-1,2.1271423E-1,3.0225405E-1,3.863159E-1,4.7527775E-1,5.1597106E-1,6.5101784E-1,7.172946E-1,8.8476336E-1],"categories":[],"categories_nodes":[],"categories_segments":[],"categories_sizes":[],"default_left":[0,0,0,0,0,0,0,0,0,0,0,0,0,0,0,0,0,0,0,0,0,0,0,0,0,0,0,0,0,0,0,0,0,0,0,0,0,0,0,0,0,0,0,0,0,0,0,0,0,0,0],"id":23,"left_children":[1,3,5,7,9,11,13,15,17,19,21,23,25,27,29,-1,-1,-1,-1,31,33,35,37,39,41,43,45,47,49,-1,-1,-1,-1,-1,-1,-1,-1,-1,-1,-1,-1,-1,-1,-1,-1,-1,-1,-1,-1,-1,-1],"loss_changes":[1.434351E5,3.736661E4,4.374511E4,9.510078E2,1.8899355E3,3.4889316E3,5.172164E3,2.2480469E2,7.507617E1,2.3889502E2,3.8466223E2,3.904016E2,4.11125E2,4.9292188E2,5.1004688E2,0E0,0E0,0E0,0E0,3.2265625E1,2.930957E1,7.225891E1,9.749869E1,8.577344E1,9.1170166E1,5.712451E1,6.973633E0,2.1935547E1,1.8496094E1,0E0,0E0,0E0,0E0,0E0,0E0,0E0,0E0,0E0,0E0,0E0,0E0,0E0,0E0,0E0,0E0,0E0,0E0,0E0,0E0,0E0,0E0],"parents":[2147483647,0,0,1,1,2,2,3,3,4,4,5,5,6,6,7,7,8,8,9,9,10,10,11,11,12,12,13,13,14,14,19,19,20,20,21,21,22,22,23,23,24,24,25,25,26,26,27,27,28,28],"right_children":[2,4,6,8,10,12,14,16,18,20,22,24,26,28,30,-1,-1,-1,-1,32,34,36,38,40,42,44,46,48,50,-1,-1,-1,-1,-1,-1,-1,-1,-1,-1,-1,-1,-1,-1,-1,-1,-1,-1,-1,-1,-1,-1],"split_conditions":[9.64434E1,6.83219E1,1.26540596E2,5.599617E1,8.510472E1,1.09825096E2,1.554871E2,4.92268E1,6.36777E1,7.969073E1,8.97318E1,1.0351339E2,1.1639503E2,1.3750803E2,1.6413033E2,-7.510459E-1,-6.473661E-1,-5.5572313E-1,-3.9099705E-1,4E0,3.5055205E-2,2.4450209E-2,-5.0220345E-3,-5.1701665E-3,-1.859453E-2,-6.597131E-3,7.2042765E-3,1.8293348E-3,1.0408309E-2,9.8789805E-1,1.2486634E0,-3.4529766E-1,-2.5927708E-1,-2.0904203E-1,-1.4892475E-1,-1.2391012E-1,-6.2019555E-3,-7.627435E-2,-1.5612676E-2,3.9493643E-2,1.0200311E-1,6.127588E-2,1.7984979E-1,2.1271423E-1,3.0225405E-1,3.863159E-1,4.7527775E-1,5.1597106E-1,6.5101784E-1,7.172946E-1,8.8476336E-1],"split_indices":[0,0,15,15,15,15,0,0,6,15,0,15,15,15,15,0,0,0,0,31,27,25,25,25,25,25,25,25,25,0,0,0,0,0,0,0,0,0,0,0,0,0,0,0,0,0,0,0,0,0,0],"split_type":[0,0,0,0,0,0,0,0,0,0,0,0,0,0,0,0,0,0,0,0,0,0,0,0,0,0,0,0,0,0,0,0,0,0,0,0,0,0,0,0,0,0,0,0,0,0,0,0,0,0,0],"sum_hessian":[2.577E3,1.419E3,1.158E3,5.89E2,8.3E2,7.99E2,3.59E2,4.06E2,1.83E2,2.66E2,5.64E2,5.19E2,2.8E2,2.01E2,1.58E2,1.58E2,2.48E2,1.64E2,1.9E1,9.3E1,1.73E2,2.52E2,3.12E2,2.7E2,2.49E2,1.41E2,1.39E2,8.6E1,1.15E2,1.04E2,5.4E1,4E1,5.3E1,1.33E2,4E1,2.38E2,1.4E1,9.5E1,2.17E2,8E1,1.9E2,1.9E1,2.3E2,3.7E1,1.04E2,1.1E2,2.9E1,4.8E1,3.8E1,8.5E1,3E1],"tree_param":{"num_deleted":"0","num_feature":"34","num_nodes":"51","size_leaf_vector":"1"}},{"base_weights":[-5.3644557E-2,-6.1385055E0,8.412454E0,-1.2248399E1,-2.137917E0,4.656375E0,1.7731638E1,-1.3046347E1,-1.0172421E1,-3.6506941E0,-7.119795E-1,3.2058537E0,8.407938E0,1.4585652E1,2.1192926E1,-7.5918335E-1,-6.286933E-1,-5.205598E-1,-3.723643E-1,-4.927874E0,-2.8563035E0,-1.3848586E0,1.2313669E-1,2.4212666E0,4.663241E0,7.1669903E0,5.0988114E-1,1.3113225E1,1.6400072E1,9.9886125E-1,1.348334E0,-3.188052E-1,-2.2440751E-1,-1.6983339E-1,-1.24834895E-1,-8.978265E-2,-3.975509E-2,-3.4841087E-2,2.3961747E-2,9.464301E-2,1.5404335E-1,1.5757981E-1,2.560186E-1,3.2337767E-1,4.0019283E-1,4.9236155E-1,6.824389E-1,7.1582246E-1,9.244572E-1],"categories":[],"categories_nodes":[],"categories_segments":[],"categories_sizes":[],"default_left":[0,0,0,0,0,0,0,0,0,0,0,0,0,0,0,0,0,0,0,0,0,0,0,0,0,0,0,0,0,0,0,0,0,0,0,0,0,0,0,0,0,0,0,0,0,0,0,0,0],"id":24,"left_children":[1,3,5,7,9,11,13,15,17,19,21,23,25,27,29,-1,-1,-1,-1,31,33,35,37,39,41,43,-1,45,47,-1,-1,-1,-1,-1,-1,-1,-1,-1,-1,-1,-1,-1,-1,-1,-1,-1,-1,-1,-1],"loss_changes":[1.309511E5,3.612382E4,3.7124016E4,8.3403125E2,1.927592E3,4.1021523E3,3.0085E3,2.2942969E2,2.934375E1,4.2547363E2,2.5990942E2,6.157529E2,3.937871E2,2.1746094E2,4.6032422E2,0E0,0E0,0E0,0E0,7.5372314E1,4.3395996E1,6.0333984E1,6.075324E1,1.18795654E2,1.1502051E2,2.171045E1,0E0,2.9413086E1,3.2367188E1,0E0,0E0,0E0,0E0,0E0,0E0,0E0,0E0,0E0,0E0,0E0,0E0,0E0,0E0,0E0,0E0,0E0,0E0,0E0,0E0],"parents":[2147483647,0,0,1,1,2,2,3,3,4,4,5,5,6,6,7,7,8,8,9,9,10,10,11,11,12,12,13,13,14,14,19,19,20,20,21,21,22,22,23,23,24,24,25,25,27,27,28,28],"right_children":[2,4,6,8,10,12,14,16,18,20,22,24,26,28,30,-1,-1,-1,-1,32,34,36,38,40,42,44,-1,46,48,-1,-1,-1,-1,-1,-1,-1,-1,-1,-1,-1,-1,-1,-1,-1,-1,-1,-1,-1,-1],"split_conditions":[9.89945E1,6.83078E1,1.346816E2,5.6212E1,8.8172554E1,1.156467E2,1.572588E2,4.7344418E1,2.013E3,8.227299E1,9.28117E1,1.075082E2,1.248704E2,4.9874536E-3,1.7615549E2,-7.5918335E-1,-6.286933E-1,-5.205598E-1,-3.723643E-1,7.65451E1,-6.365941E-3,2.2515405E-3,-4.2925174E-3,1.9436238E-3,-8.745452E-3,1.1E1,5.0988114E-1,1.3295001E2,1.4678287E2,9.9886125E-1,1.348334E0,-3.188052E-1,-2.2440751E-1,-1.6983339E-1,-1.24834895E-1,-8.978265E-2,-3.975509E-2,-3.4841087E-2,2.3961747E-2,9.464301E-2,1.5404335E-1,1.5757981E-1,2.560186E-1,3.2337767E-1,4.0019283E-1,4.9236155E-1,6.824389E-1,7.1582246E-1,9.244572E-1],"split_indices":[0,2,0,0,15,0,0,15,33,15,0,0,17,25,15,0,0,0,0,2,26,25,25,25,25,31,0,20,15,0,0,0,0,0,0,0,0,0,0,0,0,0,0,0,0,0,0,0,0],"split_type":[0,0,0,0,0,0,0,0,0,0,0,0,0,0,0,0,0,0,0,0,0,0,0,0,0,0,0,0,0,0,0,0,0,0,0,0,0,0,0,0,0,0,0,0,0,0,0,0,0],"sum_hessian":[2.54E3,1.478E3,1.062E3,5.84E2,8.94E2,7.58E2,3.04E2,4.18E2,1.66E2,4.33E2,4.61E2,5.48E2,2.1E2,1.62E2,1.42E2,7E1,3.48E2,1.5E2,1.6E1,1.64E2,2.69E2,2.55E2,2.06E2,3.58E2,1.9E2,1.27E2,8.3E1,9.4E1,6.8E1,1.21E2,2.1E1,3.5E1,1.29E2,1.04E2,1.65E2,1.49E2,1.06E2,6.2E1,1.44E2,2.01E2,1.57E2,4.6E1,1.44E2,7.4E1,5.3E1,1.6E1,7.8E1,3.8E1,3E1],"tree_param":{"num_deleted":"0","num_feature":"34","num_nodes":"49","size_leaf_vector":"1"}},{"base_weights":[-4.2139806E-2,-5.448462E0,8.476529E0,-1.1410653E1,-1.6041145E0,4.7538314E0,1.68731E1,-1.2268017E1,-8.781261E0,-3.0037262E0,-1.2940736E-1,3.2974746E0,7.938223E0,1.4079608E1,2.0256369E1,-6.7784536E-1,-5.728812E-1,-4.790793E-1,-3.4718496E-1,-4.2399583E0,-2.3058746E0,-9.588393E-1,6.489461E-1,2.5236433E0,4.4854274E0,6.7405E0,9.389074E0,1.30995455E1,8.3153546E-1,1.8943394E1,1.282241E0,-2.549028E-1,-1.8539779E-1,-1.2038256E-1,3.4482628E-3,-6.283803E-2,-2.0636362E-3,2.7900292E-2,2.0657094E-1,7.962146E-2,1.418126E-1,1.5479238E-1,2.4501796E-1,3.058809E-1,3.7921098E-1,4.314097E-1,5.775832E-1,5.8766127E-1,7.1213984E-1,6.790535E-1,9.7200644E-1],"categories":[],"categories_nodes":[],"categories_segments":[],"categories_sizes":[],"default_left":[0,0,0,0,0,0,0,0,0,0,0,0,0,0,0,0,0,0,0,0,0,0,0,0,0,0,0,0,0,0,0,0,0,0,0,0,0,0,0,0,0,0,0,0,0,0,0,0,0,0,0],"id":25,"left_children":[1,3,5,7,9,11,13,15,17,19,21,23,25,27,29,-1,-1,-1,-1,31,33,35,37,39,41,43,45,47,-1,49,-1,-1,-1,-1,-1,-1,-1,-1,-1,-1,-1,-1,-1,-1,-1,-1,-1,-1,-1,-1,-1],"loss_changes":[1.19097195E5,3.6241E4,3.1300562E4,1.2878594E3,1.9869468E3,3.2051152E3,2.6223203E3,3.278672E2,1.612373E2,4.157456E2,3.040811E2,4.2923193E2,3.1392285E2,2.0921094E2,4.790039E2,0E0,0E0,0E0,0E0,6.101831E1,7.7261475E1,6.214502E1,7.4183075E1,8.0334595E1,9.242676E1,1.6873047E1,5.6277344E1,2.855664E1,0E0,3.6335938E1,0E0,0E0,0E0,0E0,0E0,0E0,0E0,0E0,0E0,0E0,0E0,0E0,0E0,0E0,0E0,0E0,0E0,0E0,0E0,0E0,0E0],"parents":[2147483647,0,0,1,1,2,2,3,3,4,4,5,5,6,6,7,7,8,8,9,9,10,10,11,11,12,12,13,13,14,14,19,19,20,20,21,21,22,22,23,23,24,24,25,25,26,26,27,27,29,29],"right_children":[2,4,6,8,10,12,14,16,18,20,22,24,26,28,30,-1,-1,-1,-1,32,34,36,38,40,42,44,46,48,-1,50,-1,-1,-1,-1,-1,-1,-1,-1,-1,-1,-1,-1,-1,-1,-1,-1,-1,-1,-1,-1,-1],"split_conditions":[1.010702E2,7.110513E1,1.346816E2,5.7119175E1,8.97318E1,1.156467E2,1.591819E2,4.95771E1,6.40517E1,8.36721E1,9.374879E1,1.075082E2,1.2355904E2,1.0408309E-2,1.7615549E2,-6.7784536E-1,-5.728812E-1,-4.790793E-1,-3.4718496E-1,-3.4589688E-3,2.4450209E-2,5.69983E-3,4.0408526E-2,-5.870824E-3,-8.745452E-3,1.1E1,1.0902735E-2,1.439912E2,8.3153546E-1,4.0064247E1,1.282241E0,-2.549028E-1,-1.8539779E-1,-1.2038256E-1,3.4482628E-3,-6.283803E-2,-2.0636362E-3,2.7900292E-2,2.0657094E-1,7.962146E-2,1.418126E-1,1.5479238E-1,2.4501796E-1,3.058809E-1,3.7921098E-1,4.314097E-1,5.775832E-1,5.8766127E-1,7.1213984E-1,6.790535E-1,9.7200644E-1],"split_indices":[0,20,0,15,0,0,0,0,0,0,15,0,15,25,15,0,0,0,0,25,25,25,25,25,25,31,25,2,0,22,0,0,0,0,0,0,0,0,0,0,0,0,0,0,0,0,0,0,0,0,0],"split_type":[0,0,0,0,0,0,0,0,0,0,0,0,0,0,0,0,0,0,0,0,0,0,0,0,0,0,0,0,0,0,0,0,0,0,0,0,0,0,0,0,0,0,0,0,0,0,0,0,0,0,0],"sum_hessian":[2.584E3,1.581E3,1.003E3,6.19E2,9.62E2,6.96E2,3.07E2,4.64E2,1.55E2,4.93E2,4.69E2,4.79E2,2.17E2,1.71E2,1.36E2,1.73E2,2.91E2,1.05E2,5E1,1.76E2,3.17E2,2.27E2,2.42E2,2.92E2,1.87E2,1.22E2,9.5E1,1.28E2,4.3E1,1.13E2,2.3E1,6.4E1,1.12E2,3.04E2,1.3E1,1.71E2,5.6E1,2.37E2,5E0,7.5E1,2.17E2,4.5E1,1.42E2,7.5E1,4.7E1,7.4E1,2.1E1,6.4E1,6.4E1,1.2E1,1.01E2],"tree_param":{"num_deleted":"0","num_feature":"34","num_nodes":"51","size_leaf_vector":"1"}},{"base_weights":[1.0032928E-1,-5.0481052E0,8.380285E0,-1.0781991E1,-1.4724861E0,4.828728E0,1.6650316E1,-1.1697741E1,-8.532024E0,-2.8590257E0,2.1599486E-2,3.4306974E0,7.8982935E0,1.3586679E1,1.9005392E1,-6.4498854E-1,-5.51871E-1,-4.600896E-1,-3.2691196E-1,-4.005049E0,-2.1707473E0,-6.066036E-1,1.0726657E0,2.6782904E0,4.7377057E0,6.757655E0,9.521862E0,5.9679186E-1,7.4358433E-1,9.00856E-1,1.2389106E0,-2.4163361E-1,-1.743156E-1,-1.12893775E-1,-1.3840149E-2,-8.727593E-2,-1.4190455E-2,3.3150862E-3,6.6243514E-2,1.1660868E-1,1.7625745E-1,2.2031537E-1,2.9436025E-1,3.0909845E-1,3.913008E-1,4.288198E-1,5.374384E-1],"categories":[],"categories_nodes":[],"categories_segments":[],"categories_sizes":[],"default_left":[0,0,0,0,0,0,0,0,0,0,0,0,0,0,0,0,0,0,0,0,0,0,0,0,0,0,0,0,0,0,0,0,0,0,0,0,0,0,0,0,0,0,0,0,0,0,0],"id":26,"left_children":[1,3,5,7,9,11,13,15,17,19,21,23,25,27,29,-1,-1,-1,-1,31,33,35,37,39,41,43,45,-1,-1,-1,-1,-1,-1,-1,-1,-1,-1,-1,-1,-1,-1,-1,-1,-1,-1,-1,-1],"loss_changes":[1.07850914E5,3.196632E4,2.840779E4,1.1323516E3,1.9932332E3,2.8898857E3,1.8381172E3,1.9097656E2,1.7462207E2,3.842915E2,3.0706863E2,4.4778516E2,3.2662988E2,9.558984E1,4.7351172E2,0E0,0E0,0E0,0E0,6.217334E1,5.09364E1,1.0628361E2,4.3935913E1,7.912671E1,3.7789795E1,2.8944336E1,4.4814453E0,0E0,0E0,0E0,0E0,0E0,0E0,0E0,0E0,0E0,0E0,0E0,0E0,0E0,0E0,0E0,0E0,0E0,0E0,0E0,0E0],"parents":[2147483647,0,0,1,1,2,2,3,3,4,4,5,5,6,6,7,7,8,8,9,9,10,10,11,11,12,12,13,13,14,14,19,19,20,20,21,21,22,22,23,23,24,24,25,25,26,26],"right_children":[2,4,6,8,10,12,14,16,18,20,22,24,26,28,30,-1,-1,-1,-1,32,34,36,38,40,42,44,46,-1,-1,-1,-1,-1,-1,-1,-1,-1,-1,-1,-1,-1,-1,-1,-1,-1,-1,-1,-1],"split_conditions":[1.015432E2,7.28743E1,1.36488E2,5.655108E1,8.9844315E1,1.1639503E2,1.560249E2,4.8846107E1,5.916369E1,8.36721E1,9.6731384E1,1.0926429E2,1.2580924E2,2.334865E-3,1.748936E2,-6.4498854E-1,-5.51871E-1,-4.600896E-1,-3.2691196E-1,-4.0450003E-3,1.9879181E-2,-1.2473419E-2,-6.597131E-3,4.9874536E-3,2.1905398E-2,2.8168126E-3,4.6683825E-3,5.9679186E-1,7.4358433E-1,9.00856E-1,1.2389106E0,-2.4163361E-1,-1.743156E-1,-1.12893775E-1,-1.3840149E-2,-8.727593E-2,-1.4190455E-2,3.3150862E-3,6.6243514E-2,1.1660868E-1,1.7625745E-1,2.2031537E-1,2.9436025E-1,3.0909845E-1,3.913008E-1,4.288198E-1,5.374384E-1],"split_indices":[0,18,0,15,15,15,0,15,20,0,15,15,15,25,0,0,0,0,0,25,25,26,25,25,26,25,25,0,0,0,0,0,0,0,0,0,0,0,0,0,0,0,0,0,0,0,0],"split_type":[0,0,0,0,0,0,0,0,0,0,0,0,0,0,0,0,0,0,0,0,0,0,0,0,0,0,0,0,0,0,0,0,0,0,0,0,0,0,0,0,0,0,0,0,0,0,0],"sum_hessian":[2.528E3,1.559E3,9.69E2,5.98E2,9.61E2,6.79E2,2.9E2,4.22E2,1.76E2,4.98E2,4.63E2,4.68E2,2.11E2,1.29E2,1.61E2,1.43E2,2.79E2,1.29E2,4.7E1,1.85E2,3.13E2,2.9E2,1.73E2,2.99E2,1.69E2,1.27E2,8.4E1,6.1E1,6.8E1,1.41E2,2E1,6.8E1,1.17E2,2.99E2,1.4E1,6.3E1,2.27E2,3.5E1,1.38E2,2.15E2,8.4E1,1.35E2,3.4E1,8.7E1,4E1,5.2E1,3.2E1],"tree_param":{"num_deleted":"0","num_feature":"34","num_nodes":"47","size_leaf_vector":"1"}},{"base_weights":[-1.2281727E-2,-4.591705E0,8.384901E0,-1.0309522E1,-1.2247955E0,4.734416E0,1.5516646E1,-1.1156328E1,-8.284013E0,-2.5018306E0,4.8699886E-1,3.281446E0,7.2147117E0,1.34899E1,1.94382E1,-6.4343214E-1,-5.3391975E-1,-4.4385105E-1,-3.1898698E-1,-3.4025934E0,-1.7304468E0,-3.391372E-1,1.218582E0,2.469125E0,4.0555973E0,6.0293427E0,4.3595043E-1,5.821677E-1,1.489328E1,9.005262E-1,1.1691514E0,-1.8836176E-1,-1.3727553E-1,-1.02181636E-1,-4.9747318E-2,-8.237969E-2,-9.346135E-3,5.105123E-2,1.089172E-1,6.579408E-2,1.346866E-1,1.3915752E-1,2.1676639E-1,1.3530533E-1,3.0708098E-1,6.0190165E-1,8.136315E-1],"categories":[],"categories_nodes":[],"categories_segments":[],"categories_sizes":[],"default_left":[0,0,0,0,0,0,0,0,0,0,0,0,0,0,0,0,0,0,0,0,0,0,0,0,0,0,0,0,0,0,0,0,0,0,0,0,0,0,0,0,0,0,0,0,0,0,0],"id":27,"left_children":[1,3,5,7,9,11,13,15,17,19,21,23,25,27,29,-1,-1,-1,-1,31,33,35,37,39,41,43,-1,-1,45,-1,-1,-1,-1,-1,-1,-1,-1,-1,-1,-1,-1,-1,-1,-1,-1,-1,-1],"loss_changes":[9.959619E4,3.225152E4,2.3719887E4,9.7078125E2,2.3098586E3,2.1591758E3,2.1904297E3,2.1621875E2,1.5301172E2,4.1397314E2,2.7368427E2,2.3081592E2,3.4359668E2,3.6035938E2,1.548086E2,0E0,0E0,0E0,0E0,5.5614502E1,7.32171E1,4.1930946E1,4.2961853E1,4.526941E1,5.663086E1,3.0255371E1,0E0,0E0,2.5025195E2,0E0,0E0,0E0,0E0,0E0,0E0,0E0,0E0,0E0,0E0,0E0,0E0,0E0,0E0,0E0,0E0,0E0,0E0],"parents":[2147483647,0,0,1,1,2,2,3,3,4,4,5,5,6,6,7,7,8,8,9,9,10,10,11,11,12,12,13,13,14,14,19,19,20,20,21,21,22,22,23,23,24,24,25,25,28,28],"right_children":[2,4,6,8,10,12,14,16,18,20,22,24,26,28,30,-1,-1,-1,-1,32,34,36,38,40,42,44,-1,-1,46,-1,-1,-1,-1,-1,-1,-1,-1,-1,-1,-1,-1,-1,-1,-1,-1,-1,-1],"split_conditions":[1.02535225E2,7.35519E1,1.352984E2,5.655108E1,9.1478294E1,1.149601E2,1.608654E2,4.7689873E1,6.36777E1,8.5563896E1,9.64434E1,1.071016E2,1.2355904E2,1.4678287E2,1.748936E2,-6.4343214E-1,-5.3391975E-1,-4.4385105E-1,-3.1898698E-1,8.277995E1,1.1051763E-2,-2.3405802E-2,2.1551788E-2,-2.4793869E-2,-1.6550237E-2,-2.3459109E-2,4.3595043E-1,5.821677E-1,-1.2683884E-2,9.005262E-1,1.1691514E0,-1.8836176E-1,-1.3727553E-1,-1.02181636E-1,-4.9747318E-2,-8.237969E-2,-9.346135E-3,5.105123E-2,1.089172E-1,6.579408E-2,1.346866E-1,1.3915752E-1,2.1676639E-1,1.3530533E-1,3.0708098E-1,6.0190165E-1,8.136315E-1],"split_indices":[15,0,0,15,15,0,15,15,6,15,0,0,15,15,0,0,0,0,0,16,26,26,26,26,26,27,0,0,26,0,0,0,0,0,0,0,0,0,0,0,0,0,0,0,0,0,0],"split_type":[0,0,0,0,0,0,0,0,0,0,0,0,0,0,0,0,0,0,0,0,0,0,0,0,0,0,0,0,0,0,0,0,0,0,0,0,0,0,0,0,0,0,0,0,0,0,0],"sum_hessian":[2.588E3,1.675E3,9.13E2,6.2E2,1.055E3,6.05E2,3.08E2,4.34E2,1.86E2,6.04E2,4.51E2,3.83E2,2.22E2,2.06E2,1.02E2,8.9E1,3.45E2,1.39E2,4.7E1,2.77E2,3.27E2,2.12E2,2.39E2,1.89E2,1.94E2,1.27E2,9.5E1,9.3E1,1.13E2,7.9E1,2.3E1,1.75E2,1.02E2,2.28E2,9.9E1,2.1E1,1.91E2,2E2,3.9E1,3.2E1,1.57E2,3.7E1,1.57E2,5E0,1.22E2,4E1,7.3E1],"tree_param":{"num_deleted":"0","num_feature":"34","num_nodes":"47","size_leaf_vector":"1"}},{"base_weights":[1.2510206E-1,-4.4180274E0,7.7080584E0,-9.704038E0,-1.2003036E0,4.411875E0,1.4924729E1,-1.045237E1,-7.4536905E0,-2.4755917E0,2.0403086E-1,2.9435093E0,6.8527474E0,1.3042404E1,1.8327719E1,-5.800191E-1,-4.907782E-1,-4.0750328E-1,-2.9201153E-1,-3.3091922E0,-1.7376764E0,-5.1917833E-1,9.453393E-1,2.4123068E0,3.9800107E0,5.8961406E0,8.502153E0,5.285185E-1,1.4029118E1,1.1459693E0,8.582954E-1,-2.0770656E-1,-1.4221458E-1,-1.01015046E-1,-5.667993E-2,-1.0745775E-1,-1.4224683E-2,9.105961E-3,6.0052074E-2,9.8785155E-2,1.7252913E-1,1.827528E-1,2.58843E-1,2.554057E-1,3.199692E-1,3.8214687E-1,4.952604E-1,3.6616793E-1,7.139792E-1],"categories":[],"categories_nodes":[],"categories_segments":[],"categories_sizes":[],"default_left":[0,0,0,0,0,0,0,0,0,0,0,0,0,0,0,0,0,0,0,0,0,0,0,0,0,0,0,0,0,0,0,0,0,0,0,0,0,0,0,0,0,0,0,0,0,0,0,0,0],"id":28,"left_children":[1,3,5,7,9,11,13,15,17,19,21,23,25,27,29,-1,-1,-1,-1,31,33,35,37,39,41,43,45,-1,47,-1,-1,-1,-1,-1,-1,-1,-1,-1,-1,-1,-1,-1,-1,-1,-1,-1,-1,-1,-1],"loss_changes":[8.781388E4,2.7099479E4,2.2649246E4,9.357578E2,1.777336E3,2.3335986E3,1.6730859E3,2.1297266E2,1.240332E2,3.1361084E2,2.541187E2,2.16604E2,3.3657715E2,3.2732812E2,1.5736328E2,0E0,0E0,0E0,0E0,8.2937744E1,4.4856567E1,9.095254E1,4.5309692E1,1.17301636E2,3.3866455E1,2.9214844E1,2.8627441E1,0E0,1.2336719E2,0E0,0E0,0E0,0E0,0E0,0E0,0E0,0E0,0E0,0E0,0E0,0E0,0E0,0E0,0E0,0E0,0E0,0E0,0E0,0E0],"parents":[2147483647,0,0,1,1,2,2,3,3,4,4,5,5,6,6,7,7,8,8,9,9,10,10,11,11,12,12,13,13,14,14,19,19,20,20,21,21,22,22,23,23,24,24,25,25,26,26,28,28],"right_children":[2,4,6,8,10,12,14,16,18,20,22,24,26,28,30,-1,-1,-1,-1,32,34,36,38,40,42,44,46,-1,48,-1,-1,-1,-1,-1,-1,-1,-1,-1,-1,-1,-1,-1,-1,-1,-1,-1,-1,-1,-1],"split_conditions":[1.019686E2,7.35519E1,1.36488E2,5.6926846E1,9.05528E1,1.149601E2,1.608654E2,4.92268E1,6.283885E1,8.5007E1,9.54882E1,1.089603E2,1.2580924E2,1.439912E2,2E0,-5.800191E-1,-4.907782E-1,-4.0750328E-1,-2.9201153E-1,-4.2925174E-3,4.484615E-3,-2.3405802E-2,-4.693235E-3,4.9874536E-3,8.395272E-3,1.184775E2,4.6683825E-3,5.285185E-1,-3.3129573E-2,1.1459693E0,8.582954E-1,-2.0770656E-1,-1.4221458E-1,-1.01015046E-1,-5.667993E-2,-1.0745775E-1,-1.4224683E-2,9.105961E-3,6.0052074E-2,9.8785155E-2,1.7252913E-1,1.827528E-1,2.58843E-1,2.554057E-1,3.199692E-1,3.8214687E-1,4.952604E-1,3.6616793E-1,7.139792E-1],"split_indices":[0,0,0,15,15,0,15,0,16,0,0,0,15,0,31,0,0,0,0,25,25,26,25,25,25,2,25,0,25,0,0,0,0,0,0,0,0,0,0,0,0,0,0,0,0,0,0,0,0],"split_type":[0,0,0,0,0,0,0,0,0,0,0,0,0,0,0,0,0,0,0,0,0,0,0,0,0,0,0,0,0,0,0,0,0,0,0,0,0,0,0,0,0,0,0,0,0,0,0,0,0],"sum_hessian":[2.547E3,1.593E3,9.54E2,6.02E2,9.91E2,6.56E2,2.98E2,4.49E2,1.53E2,5.19E2,4.72E2,4.11E2,2.45E2,1.95E2,1.03E2,1.54E2,2.95E2,1.04E2,4.9E1,2.42E2,2.77E2,2.39E2,2.33E2,2.74E2,1.37E2,1.58E2,8.7E1,5.9E1,1.36E2,1.7E1,8.6E1,8.3E1,1.59E2,1.87E2,9E1,2.9E1,2.1E2,5.9E1,1.74E2,1.95E2,7.9E1,1.11E2,2.6E1,6.6E1,9.2E1,5.8E1,2.9E1,6E0,1.3E2],"tree_param":{"num_deleted":"0","num_feature":"34","num_nodes":"49","size_leaf_vector":"1"}},{"base_weights":[-3.0031686E-3,-4.4635997E0,6.7843843E0,-9.300683E0,-1.3352242E0,3.761116E0,1.3721438E1,-1.0010951E1,-7.1642184E0,-2.5789483E0,-2.4006686E-1,2.5798063E0,6.3746643E0,1.2015322E1,1.7200863E1,-5.4778E-1,-4.640049E-1,-7.820675E0,-2.8136232E-1,-3.4039626E0,-1.9943076E0,-8.507957E-1,5.2465695E-1,1.919111E0,3.4808664E0,5.346158E0,7.746432E0,1.0127949E1,1.3400156E1,8.0300045E-1,1.0449615E0,-4.1079503E-1,-3.2113466E-1,-2.0984934E-1,-1.5468727E-1,-1.1983096E-1,-7.244263E-2,-9.7372316E-2,-3.0120576E-2,2.1512238E-2,1.925429E-1,5.864331E-2,1.10458724E-1,1.01709485E-1,1.9359808E-1,1.4036392E-1,2.7340007E-1,3.4773323E-1,4.5737982E-1,4.4733015E-1,5.6189674E-1,4.9441013E-1,7.1420485E-1],"categories":[],"categories_nodes":[],"categories_segments":[],"categories_sizes":[],"default_left":[0,0,0,0,0,0,0,0,0,0,0,0,0,0,0,0,0,0,0,0,0,0,0,0,0,0,0,0,0,0,0,0,0,0,0,0,0,0,0,0,0,0,0,0,0,0,0,0,0,0,0,0,0],"id":29,"left_children":[1,3,5,7,9,11,13,15,17,19,21,23,25,27,29,-1,-1,31,-1,33,35,37,39,41,43,45,47,49,51,-1,-1,-1,-1,-1,-1,-1,-1,-1,-1,-1,-1,-1,-1,-1,-1,-1,-1,-1,-1,-1,-1,-1,-1],"loss_changes":[7.756637E4,2.3380922E4,2.1254777E4,8.4766406E2,1.2794481E3,2.1716328E3,1.6187812E3,2.0905469E2,1.1103467E2,2.0490015E2,2.3446548E2,2.8448975E2,2.6766797E2,4.108086E2,7.8375E1,0E0,0E0,4.3344727E0,0E0,3.0814209E1,5.3198242E1,7.456885E1,6.794466E1,5.876123E1,1.0808569E2,2.3727783E1,3.6835938E1,1.9388672E1,2.226543E2,0E0,0E0,0E0,0E0,0E0,0E0,0E0,0E0,0E0,0E0,0E0,0E0,0E0,0E0,0E0,0E0,0E0,0E0,0E0,0E0,0E0,0E0,0E0,0E0],"parents":[2147483647,0,0,1,1,2,2,3,3,4,4,5,5,6,6,7,7,8,8,9,9,10,10,11,11,12,12,13,13,14,14,17,17,19,19,20,20,21,21,22,22,23,23,24,24,25,25,26,26,27,27,28,28],"right_children":[2,4,6,8,10,12,14,16,18,20,22,24,26,28,30,-1,-1,32,-1,34,36,38,40,42,44,46,48,50,52,-1,-1,-1,-1,-1,-1,-1,-1,-1,-1,-1,-1,-1,-1,-1,-1,-1,-1,-1,-1,-1,-1,-1,-1],"split_conditions":[1.006827E2,7.316251E1,1.346816E2,5.7119175E1,8.874878E1,1.149601E2,1.610564E2,5.108009E1,6.36777E1,8.36721E1,9.374879E1,1.065643E2,1.2355904E2,1.454118E2,1.748936E2,-5.4778E-1,-4.640049E-1,3.6575582E-2,-2.8136232E-1,-2.292788E-2,5.0971985E1,-8.922749E-3,4.0408526E-2,-5.41321E-3,-1.6550237E-2,-1.2960021E-2,9.690725E-3,3.7603388E-3,-9.940403E-3,8.0300045E-1,1.0449615E0,-4.1079503E-1,-3.2113466E-1,-2.0984934E-1,-1.5468727E-1,-1.1983096E-1,-7.244263E-2,-9.7372316E-2,-3.0120576E-2,2.1512238E-2,1.925429E-1,5.864331E-2,1.10458724E-1,1.01709485E-1,1.9359808E-1,1.4036392E-1,2.7340007E-1,3.4773323E-1,4.5737982E-1,4.4733015E-1,5.6189674E-1,4.9441013E-1,7.1420485E-1],"split_indices":[0,15,0,15,15,0,0,15,6,0,15,15,15,0,0,0,0,26,0,26,22,25,25,25,26,25,26,25,25,0,0,0,0,0,0,0,0,0,0,0,0,0,0,0,0,0,0,0,0,0,0,0,0],"split_type":[0,0,0,0,0,0,0,0,0,0,0,0,0,0,0,0,0,0,0,0,0,0,0,0,0,0,0,0,0,0,0,0,0,0,0,0,0,0,0,0,0,0,0,0,0,0,0,0,0,0,0,0,0],"sum_hessian":[2.56E3,1.545E3,1.015E3,6.06E2,9.39E2,7.08E2,3.07E2,4.52E2,1.54E2,4.39E2,5E2,4.89E2,2.19E2,2.09E2,9.8E1,1.91E2,2.61E2,1.05E2,4.9E1,1.8E2,2.59E2,2.78E2,2.22E2,2.84E2,2.05E2,1.28E2,9.1E1,9.2E1,1.17E2,7.9E1,1.9E1,7.8E1,2.7E1,4.7E1,1.33E2,1.47E2,1.12E2,5E1,2.28E2,2.17E2,5E0,8.1E1,2.03E2,4.5E1,1.6E2,7E0,1.21E2,6.2E1,2.9E1,4.9E1,4.3E1,2.6E1,9.1E1],"tree_param":{"num_deleted":"0","num_feature":"34","num_nodes":"53","size_leaf_vector":"1"}},{"base_weights":[-1.6064819E-2,-4.2469373E0,6.679556E0,-8.836843E0,-1.2842675E0,3.697632E0,1.2994959E1,-9.801991E0,-7.557363E0,-2.4537685E0,-1.665197E-1,2.4990308E0,5.9710383E0,1.0748738E1,1.5257921E1,-5.5404174E-1,-4.6908322E-1,-4.018209E-1,-2.849054E-1,-3.4502265E0,-1.9329098E0,-7.587361E-1,4.9178275E-1,1.8296503E0,3.0631917E0,4.977989E0,7.250945E0,9.891843E0,1.240221E1,1.4305198E1,9.968691E-1,-1.9540223E-1,-1.2642103E-1,-1.4898716E-1,-8.923354E-2,-6.453114E-2,-1.976153E-2,-1.3441636E-2,3.5827108E-2,8.46839E-2,1.7880026E-1,-1.6833704E-2,1.5759274E-1,9.792219E-2,2.5391456E-1,2.0245878E-1,3.7055868E-1,4.3781286E-1,5.373669E-1,6.3959783E-1,3.6327493E-1,3.50792E-1,7.266285E-1],"categories":[],"categories_nodes":[],"categories_segments":[],"categories_sizes":[],"default_left":[0,0,0,0,0,0,0,0,0,0,0,0,0,0,0,0,0,0,0,0,0,0,0,0,0,0,0,0,0,0,0,0,0,0,0,0,0,0,0,0,0,0,0,0,0,0,0,0,0,0,0,0,0],"id":30,"left_children":[1,3,5,7,9,11,13,15,17,19,21,23,25,27,29,-1,-1,-1,-1,31,33,35,37,39,41,43,45,47,49,51,-1,-1,-1,-1,-1,-1,-1,-1,-1,-1,-1,-1,-1,-1,-1,-1,-1,-1,-1,-1,-1,-1,-1],"loss_changes":[7.308685E4,2.1486668E4,1.87635E4,6.898164E2,1.2568629E3,1.837169E3,1.4599922E3,8.213281E1,1.9420996E2,2.3672925E2,1.9259956E2,1.627102E2,2.6009863E2,1.07453125E2,4.113125E2,0E0,0E0,0E0,0E0,5.699829E1,4.2467163E1,4.95907E1,4.024098E1,4.2569824E1,7.399048E1,3.0238037E1,2.0145996E1,1.372168E1,9.158203E0,1.1797656E2,0E0,0E0,0E0,0E0,0E0,0E0,0E0,0E0,0E0,0E0,0E0,0E0,0E0,0E0,0E0,0E0,0E0,0E0,0E0,0E0,0E0,0E0,0E0],"parents":[2147483647,0,0,1,1,2,2,3,3,4,4,5,5,6,6,7,7,8,8,9,9,10,10,11,11,12,12,13,13,14,14,19,19,20,20,21,21,22,22,23,23,24,24,25,25,26,26,27,27,28,28,29,29],"right_children":[2,4,6,8,10,12,14,16,18,20,22,24,26,28,30,-1,-1,-1,-1,32,34,36,38,40,42,44,46,48,50,52,-1,-1,-1,-1,-1,-1,-1,-1,-1,-1,-1,-1,-1,-1,-1,-1,-1,-1,-1,-1,-1,-1,-1],"split_conditions":[1.010702E2,7.110513E1,1.346816E2,5.514028E1,8.91129E1,1.138752E2,1.572588E2,4.74059E1,6.21011E1,8.277995E1,9.40781E1,1.054752E2,1.2183364E2,1.532937E2,1.748936E2,-5.5404174E-1,-4.6908322E-1,-4.018209E-1,-2.849054E-1,1.7058399E-2,-3.4251153E-2,-8.571547E-3,3.8047684E1,3.8537923E-2,-6.411875E-2,-2.7993983E-2,-4.8514694E-2,1.4467976E-3,1.6042874E2,-5.3125173E-2,9.968691E-1,-1.9540223E-1,-1.2642103E-1,-1.4898716E-1,-8.923354E-2,-6.453114E-2,-1.976153E-2,-1.3441636E-2,3.5827108E-2,8.46839E-2,1.7880026E-1,-1.6833704E-2,1.5759274E-1,9.792219E-2,2.5391456E-1,2.0245878E-1,3.7055868E-1,4.3781286E-1,5.373669E-1,6.3959783E-1,3.6327493E-1,3.50792E-1,7.266285E-1],"split_indices":[0,20,0,14,0,0,0,0,0,16,0,0,14,10,0,0,0,0,0,26,26,27,22,26,27,27,26,26,19,26,0,0,0,0,0,0,0,0,0,0,0,0,0,0,0,0,0,0,0,0,0,0,0],"split_type":[0,0,0,0,0,0,0,0,0,0,0,0,0,0,0,0,0,0,0,0,0,0,0,0,0,0,0,0,0,0,0,0,0,0,0,0,0,0,0,0,0,0,0,0,0,0,0,0,0,0,0,0,0],"sum_hessian":[2.578E3,1.58E3,9.98E2,6.19E2,9.61E2,6.79E2,3.19E2,3.49E2,2.7E2,4.69E2,4.92E2,4.46E2,2.33E2,1.63E2,1.56E2,8E1,2.69E2,2.12E2,5.8E1,1.59E2,3.1E2,2.59E2,2.33E2,2.06E2,2.4E2,1.34E2,9.9E1,1.12E2,5.1E1,1.33E2,2.3E1,1.04E2,5.5E1,3.6E1,2.74E2,1.04E2,1.55E2,5.3E1,1.8E2,1.93E2,1.3E1,6E0,2.34E2,5E0,1.29E2,6E0,9.3E1,5.3E1,5.9E1,4.6E1,5E0,5E0,1.28E2],"tree_param":{"num_deleted":"0","num_feature":"34","num_nodes":"53","size_leaf_vector":"1"}},{"base_weights":[-1.665603E-3,-4.232071E0,6.1119366E0,-8.5019245E0,-1.3652339E0,3.357577E0,1.2396877E1,-9.442358E0,-7.315661E0,-2.3814006E0,-2.841196E-1,2.0157673E0,5.383679E0,1.0345006E1,1.4513325E1,-5.870285E-1,-4.5736715E-1,-7.6720853E0,-2.7529284E-1,-3.1798866E0,-1.792422E0,-6.221869E-1,6.152077E-1,1.1094549E0,2.350503E0,4.24999E0,6.338021E0,9.024441E0,1.1571548E1,1.3289873E1,1.6576326E1,-4.0401712E-1,-3.4072778E-1,-1.7700449E-1,-1.1423738E-1,-9.446936E-2,1.459934E-2,-6.1379194E-2,-9.13681E-3,1.31486375E-2,6.1568737E-2,6.307151E-2,-1.01115406E-1,9.269952E-2,1.5199657E-1,1.5330122E-1,2.2493961E-1,2.8246206E-1,3.8911748E-1,2.4512945E-1,4.609762E-1,4.930926E-1,6.365089E-1,3.0517098E-1,6.7966145E-1,5.931643E-1,8.8190347E-1],"categories":[],"categories_nodes":[],"categories_segments":[],"categories_sizes":[],"default_left":[0,0,0,0,0,0,0,0,0,0,0,0,0,0,0,0,0,0,0,0,0,0,0,0,0,0,0,0,0,0,0,0,0,0,0,0,0,0,0,0,0,0,0,0,0,0,0,0,0,0,0,0,0,0,0,0,0],"id":31,"left_children":[1,3,5,7,9,11,13,15,17,19,21,23,25,27,29,-1,-1,31,-1,33,35,37,39,41,43,45,47,49,51,53,55,-1,-1,-1,-1,-1,-1,-1,-1,-1,-1,-1,-1,-1,-1,-1,-1,-1,-1,-1,-1,-1,-1,-1,-1,-1,-1],"loss_changes":[6.690743E4,1.8703863E4,1.827182E4,6.1422266E2,1.00536743E3,1.9920488E3,1.2457188E3,1.2036328E2,1.3447656E2,2.1578027E2,1.3567822E2,1.320481E2,2.890088E2,1.6400977E2,1.7045703E2,0E0,0E0,2.3267578E1,0E0,5.5493164E1,5.6091003E1,8.583231E1,2.6005085E1,6.0540924E1,1.0478308E2,2.5806885E1,1.1087988E2,2.1736816E1,3.661133E1,1.3960938E2,5.8020508E1,0E0,0E0,0E0,0E0,0E0,0E0,0E0,0E0,0E0,0E0,0E0,0E0,0E0,0E0,0E0,0E0,0E0,0E0,0E0,0E0,0E0,0E0,0E0,0E0,0E0,0E0],"parents":[2147483647,0,0,1,1,2,2,3,3,4,4,5,5,6,6,7,7,8,8,9,9,10,10,11,11,12,12,13,13,14,14,17,17,19,19,20,20,21,21,22,22,23,23,24,24,25,25,26,26,27,27,28,28,29,29,30,30],"right_children":[2,4,6,8,10,12,14,16,18,20,22,24,26,28,30,-1,-1,32,-1,34,36,38,40,42,44,46,48,50,52,54,56,-1,-1,-1,-1,-1,-1,-1,-1,-1,-1,-1,-1,-1,-1,-1,-1,-1,-1,-1,-1,-1,-1,-1,-1,-1,-1],"split_conditions":[1.001322E2,7.257409E1,1.346816E2,5.45048E1,8.91129E1,1.116405E2,1.572588E2,4.60289E1,6.21011E1,8.3885E1,6.2980666E-3,-5.41321E-3,1.197199E2,1.439912E2,1.658089E2,-5.870285E-1,-4.5736715E-1,4.484615E-3,-2.7529284E-1,1.7058399E-2,2.4450209E-2,9.25606E1,1.4566094E-2,1.194916E2,1.054752E2,-1.4549261E-2,4.6683825E-3,-1.6930012E-2,2.334865E-3,-5.0998285E-2,-1.4087956E-2,-4.0401712E-1,-3.4072778E-1,-1.7700449E-1,-1.1423738E-1,-9.446936E-2,1.459934E-2,-6.1379194E-2,-9.13681E-3,1.31486375E-2,6.1568737E-2,6.307151E-2,-1.01115406E-1,9.269952E-2,1.5199657E-1,1.5330122E-1,2.2493961E-1,2.8246206E-1,3.8911748E-1,2.4512945E-1,4.609762E-1,4.930926E-1,6.365089E-1,3.0517098E-1,6.7966145E-1,5.931643E-1,8.8190347E-1],"split_indices":[0,17,0,0,0,0,0,0,0,0,25,25,0,0,0,0,0,25,0,26,25,0,25,12,0,26,25,25,25,27,25,0,0,0,0,0,0,0,0,0,0,0,0,0,0,0,0,0,0,0,0,0,0,0,0,0,0],"split_type":[0,0,0,0,0,0,0,0,0,0,0,0,0,0,0,0,0,0,0,0,0,0,0,0,0,0,0,0,0,0,0,0,0,0,0,0,0,0,0,0,0,0,0,0,0,0,0,0,0,0,0,0,0,0,0,0,0],"sum_hessian":[2.585E3,1.528E3,1.057E3,6.13E2,9.15E2,7.36E2,3.21E2,3.38E2,2.75E2,4.71E2,4.44E2,4.44E2,2.92E2,1.66E2,1.55E2,3.4E1,3.04E2,2.27E2,4.8E1,1.98E2,2.73E2,3.23E2,1.21E2,1.21E2,3.23E2,1.36E2,1.56E2,8.4E1,8.2E1,1.02E2,5.3E1,1.48E2,7.9E1,1.39E2,5.9E1,2.61E2,1.2E1,1.35E2,1.88E2,7.8E1,4.3E1,1.16E2,5E0,1.9E2,1.33E2,2.6E1,1.1E2,1.09E2,4.7E1,5E0,7.9E1,3.7E1,4.5E1,5E0,9.7E1,1.2E1,4.1E1],"tree_param":{"num_deleted":"0","num_feature":"34","num_nodes":"57","size_leaf_vector":"1"}},{"base_weights":[4.3934185E-2,-2.6687834E0,8.320184E0,-7.92371E0,-2.4317133E-1,5.153914E0,1.2677891E1,-8.717269E0,-6.4288845E0,-1.5153221E0,1.4615842E0,4.232331E0,7.1530952E0,1.1440574E1,1.6523012E1,-5.1976734E-1,-4.1977033E-1,-6.8923273E0,-2.3628056E-1,-2.4910002E0,-8.8473296E-1,9.160652E-1,2.163272E0,3.6368618E0,5.1833544E0,2.682682E-1,3.7265557E-1,9.349055E0,1.2272499E1,8.5426295E-1,4.825163E-1,-3.4950444E-1,-2.1995771E-1,-1.5523165E-1,-1.0462002E-1,-1.12994686E-1,-3.7028417E-2,-1.9937959E-2,5.402192E-2,1.6412579E-3,1.155772E-1,1.23589195E-1,1.9784757E-1,2.105273E-1,2.921072E-1,4.827849E-1,2.7730283E-1,4.8862958E-1,6.484048E-1],"categories":[],"categories_nodes":[],"categories_segments":[],"categories_sizes":[],"default_left":[0,0,0,0,0,0,0,0,0,0,0,0,0,0,0,0,0,0,0,0,0,0,0,0,0,0,0,0,0,0,0,0,0,0,0,0,0,0,0,0,0,0,0,0,0,0,0,0,0],"id":32,"left_children":[1,3,5,7,9,11,13,15,17,19,21,23,25,27,29,-1,-1,31,-1,33,35,37,39,41,43,-1,-1,45,47,-1,-1,-1,-1,-1,-1,-1,-1,-1,-1,-1,-1,-1,-1,-1,-1,-1,-1,-1,-1],"loss_changes":[5.720579E4,2.4457625E4,8.611617E3,6.612969E2,2.8518997E3,6.429092E2,1.0641836E3,1.23109375E2,1.3519238E2,4.607433E2,2.1283496E2,1.2354248E2,1.9873535E1,2.3632031E2,7.202344E1,0E0,0E0,8.5703125E0,0E0,6.513928E1,8.902286E1,6.922577E1,7.7081665E1,4.887207E1,3.5279297E1,0E0,0E0,1.7230469E1,1.17921875E2,0E0,0E0,0E0,0E0,0E0,0E0,0E0,0E0,0E0,0E0,0E0,0E0,0E0,0E0,0E0,0E0,0E0,0E0,0E0,0E0],"parents":[2147483647,0,0,1,1,2,2,3,3,4,4,5,5,6,6,7,7,8,8,9,9,10,10,11,11,12,12,13,13,14,14,17,17,19,19,20,20,21,21,22,22,23,23,24,24,27,27,28,28],"right_children":[2,4,6,8,10,12,14,16,18,20,22,24,26,28,30,-1,-1,32,-1,34,36,38,40,42,44,-1,-1,46,48,-1,-1,-1,-1,-1,-1,-1,-1,-1,-1,-1,-1,-1,-1,-1,-1,-1,-1,-1,-1],"split_conditions":[1.09825096E2,7.300198E1,1.4005318E2,5.599617E1,9.484543E1,1.2580924E2,1.6413033E2,4.706326E1,2.013E3,8.61049E1,1.0351339E2,1.177466E2,-5.4277096E-2,-1.5719358E-2,1.80807E2,-5.1976734E-1,-4.1977033E-1,5.9762303E-2,-2.3628056E-1,-6.365941E-3,-1.4087956E-2,-1.4087956E-2,-1.859453E-2,-7.6780934E-3,-1.2782157E-3,2.682682E-1,3.7265557E-1,1.748936E2,1.4678287E2,8.5426295E-1,4.825163E-1,-3.4950444E-1,-2.1995771E-1,-1.5523165E-1,-1.0462002E-1,-1.12994686E-1,-3.7028417E-2,-1.9937959E-2,5.402192E-2,1.6412579E-3,1.155772E-1,1.23589195E-1,1.9784757E-1,2.105273E-1,2.921072E-1,4.827849E-1,2.7730283E-1,4.8862958E-1,6.484048E-1],"split_indices":[15,17,15,15,15,15,15,15,33,15,15,2,27,26,12,0,0,26,0,26,25,25,25,25,25,0,0,12,15,0,0,0,0,0,0,0,0,0,0,0,0,0,0,0,0,0,0,0,0],"split_type":[0,0,0,0,0,0,0,0,0,0,0,0,0,0,0,0,0,0,0,0,0,0,0,0,0,0,0,0,0,0,0,0,0,0,0,0,0,0,0,0,0,0,0,0,0,0,0,0,0],"sum_hessian":[2.546E3,1.918E3,6.28E2,6.05E2,1.313E3,3.65E2,2.63E2,3.92E2,2.13E2,7.52E2,5.61E2,2.52E2,1.13E2,2.02E2,6.1E1,5.8E1,3.34E2,1.65E2,4.8E1,2.94E2,4.58E2,3.17E2,2.44E2,1.58E2,9.4E1,1.9E1,9.4E1,6.1E1,1.41E2,5.5E1,6E0,1.57E2,8E0,1.13E2,1.81E2,4.2E1,4.16E2,3.5E1,2.82E2,1.6E1,2.28E2,3.6E1,1.22E2,4.1E1,5.3E1,5.5E1,6E0,3.4E1,1.07E2],"tree_param":{"num_deleted":"0","num_feature":"34","num_nodes":"49","size_leaf_vector":"1"}},{"base_weights":[3.8813134E-3,-3.691796E0,5.587036E0,-7.5511684E0,-1.1189536E0,3.141239E0,1.1401234E1,-8.324977E0,-6.2705226E0,-2.0949109E0,-2.3212905E-1,2.2679913E0,5.714638E0,1.0284446E1,1.5054287E1,-5.338992E-1,-4.0439034E-1,-6.7093267E0,-4.570005E0,-2.8552787E0,-1.6768751E0,-7.4151295E-1,3.7562823E-1,1.7662907E0,3.3578036E0,5.183965E0,7.3195286E0,4.2790982E-1,1.13081045E1,5.9494734E-1,8.5209674E-1,-3.5018632E-1,-2.8406247E-1,-2.3693159E-1,-1.397372E-1,-1.593901E-1,-8.68093E-2,-9.2137E-2,-2.65085E-2,-1.17247E-1,-2.7547011E-2,9.52383E-3,6.1003186E-2,9.1274366E-2,-1.07600644E-1,1.0330156E-1,1.83241E-1,2.2994737E-1,3.1450018E-1,2.8178602E-1,4.0083608E-1,4.0603897E-1,6.00031E-1],"categories":[],"categories_nodes":[],"categories_segments":[],"categories_sizes":[],"default_left":[0,0,0,0,0,0,0,0,0,0,0,0,0,0,0,0,0,0,0,0,0,0,0,0,0,0,0,0,0,0,0,0,0,0,0,0,0,0,0,0,0,0,0,0,0,0,0,0,0,0,0,0,0],"id":33,"left_children":[1,3,5,7,9,11,13,15,17,19,21,23,25,27,29,-1,-1,31,33,35,37,39,41,43,45,47,49,-1,51,-1,-1,-1,-1,-1,-1,-1,-1,-1,-1,-1,-1,-1,-1,-1,-1,-1,-1,-1,-1,-1,-1,-1,-1],"loss_changes":[5.3255344E4,1.5411287E4,1.4581248E4,5.617344E2,8.0679517E2,1.6154717E3,1.0828672E3,1.2605664E2,1.4580469E2,1.3588916E2,1.5201021E2,2.9044727E2,1.1666113E2,3.1827148E2,2.2707227E2,0E0,0E0,1.5541016E1,1.5699463E0,5.2024414E1,5.375299E1,8.0005554E1,3.4648643E1,9.064526E1,5.9276367E1,6.1217773E1,3.934082E0,0E0,2.2058789E2,0E0,0E0,0E0,0E0,0E0,0E0,0E0,0E0,0E0,0E0,0E0,0E0,0E0,0E0,0E0,0E0,0E0,0E0,0E0,0E0,0E0,0E0,0E0,0E0],"parents":[2147483647,0,0,1,1,2,2,3,3,4,4,5,5,6,6,7,7,8,8,9,9,10,10,11,11,12,12,13,13,14,14,17,17,18,18,19,19,20,20,21,21,22,22,23,23,24,24,25,25,26,26,28,28],"right_children":[2,4,6,8,10,12,14,16,18,20,22,24,26,28,30,-1,-1,32,34,36,38,40,42,44,46,48,50,-1,52,-1,-1,-1,-1,-1,-1,-1,-1,-1,-1,-1,-1,-1,-1,-1,-1,-1,-1,-1,-1,-1,-1,-1,-1],"split_conditions":[1.0057929E2,7.28743E1,1.35198E2,5.5645233E1,8.874878E1,1.177466E2,1.6309554E2,4.63923E1,6.161922E1,8.277995E1,9.358391E1,1.0949463E2,2.0199819E-2,1.4678287E2,-6.160685E-3,-5.338992E-1,-4.0439034E-1,2.9902413E-2,5.286937E-2,3.362183E-2,2.0199819E-2,-1.4087956E-2,1.0601217E-2,1.1044001E2,-7.6780934E-3,1.2766469E2,1.2204615E2,4.2790982E-1,-1.1355924E-2,5.9494734E-1,8.5209674E-1,-3.5018632E-1,-2.8406247E-1,-2.3693159E-1,-1.397372E-1,-1.593901E-1,-8.68093E-2,-9.2137E-2,-2.65085E-2,-1.17247E-1,-2.7547011E-2,9.52383E-3,6.1003186E-2,9.1274366E-2,-1.07600644E-1,1.0330156E-1,1.83241E-1,2.2994737E-1,3.1450018E-1,2.8178602E-1,4.0083608E-1,4.0603897E-1,6.00031E-1],"split_indices":[15,18,15,15,15,2,15,15,19,16,15,15,26,15,26,0,0,26,26,27,26,25,25,21,25,16,19,0,25,0,0,0,0,0,0,0,0,0,0,0,0,0,0,0,0,0,0,0,0,0,0,0,0],"split_type":[0,0,0,0,0,0,0,0,0,0,0,0,0,0,0,0,0,0,0,0,0,0,0,0,0,0,0,0,0,0,0,0,0,0,0,0,0,0,0,0,0,0,0,0,0,0,0,0,0,0,0,0,0],"sum_hessian":[2.579E3,1.552E3,1.027E3,6.2E2,9.32E2,7.24E2,3.03E2,3.83E2,2.37E2,4.43E2,4.89E2,5.42E2,1.82E2,2.35E2,6.8E1,3.1E1,3.52E2,1.86E2,5.1E1,1.55E2,2.88E2,